<?xml version="1.0"?>
<opencv_storage>
<opencv_ml_svm>
  <format>3</format>
  <svmType>C_SVC</svmType>
  <kernel>
    <type>LINEAR</type></kernel>
  <C>1.</C>
  <term_criteria><iterations>5000</iterations></term_criteria>
  <var_count>900</var_count>
  <class_count>2</class_count>
  <class_labels type_id="opencv-matrix">
    <rows>2</rows>
    <cols>1</cols>
    <dt>i</dt>
    <data>
      -1 1</data></class_labels>
  <sv_total>1</sv_total>
  <support_vectors>
    <_>
      -1.55694373e-02 -3.90555174e-03 -4.71819527e-02 1.34335430e-02
      -1.89933069e-02 4.22526076e-02 1.12513108e-02 -4.47130064e-03
      -3.80521417e-02 1.54026663e-02 1.06152212e-02 -6.20632395e-02
      3.70261557e-02 -3.37028615e-02 1.76852550e-02 -4.80692461e-03
      -1.66181289e-02 3.53103988e-02 -1.55453965e-01 -9.68860239e-02
      -1.19661562e-01 3.25205899e-03 -3.36009897e-02 4.50593196e-02
      -2.92882621e-02 -1.24025773e-02 -1.59654677e-01 -1.10184714e-01
      -6.54960871e-02 -6.29143044e-02 -6.80412026e-03 -7.60265216e-02
      -1.88403148e-02 -6.72171861e-02 -1.83385722e-02 -1.00621119e-01
      3.10888886e-02 9.63620318e-04 -3.44698355e-02 4.66721840e-02
      -3.78746539e-02 1.89331500e-03 -3.99795920e-02 5.53497393e-03
      4.67839316e-02 -2.11335849e-02 -3.51590924e-02 -2.02857405e-02
      7.31728002e-02 -5.27906120e-02 -3.65876481e-02 -6.76400661e-02
      -7.57903885e-03 6.89359615e-03 -4.49670963e-02 -6.52469397e-02
      -4.60090153e-02 -2.58641820e-02 -1.18182011e-01 -6.69639111e-02
      -7.09018335e-02 -1.56621616e-02 -1.04397582e-02 -7.93882087e-02
      -9.04412940e-02 -7.82642737e-02 -1.69450473e-02 -1.22462273e-01
      -4.08483483e-02 -6.21156506e-02 -2.56192964e-02 -2.09190249e-02
      -1.21455244e-03 -2.63312422e-02 1.06753306e-02 7.18092173e-02
      3.89208570e-02 2.07174420e-02 -2.21742075e-02 -4.72971760e-02
      2.97627458e-03 -2.74716150e-02 -3.13414559e-02 -3.01496554e-02
      6.52892962e-02 -1.56772658e-02 3.57898697e-02 -9.74605791e-03
      -3.95964794e-02 -3.91245522e-02 -4.93662655e-02 -1.29220366e-01
      -1.09373659e-01 2.46512517e-02 -4.17261720e-02 9.11161210e-03
      -4.68386225e-02 -5.09947576e-02 -4.48292270e-02 -1.44469086e-02
      -8.54615271e-02 -7.45570362e-02 4.02711853e-02 -7.31397271e-02
      -4.25518602e-02 -9.67706665e-02 -7.07916096e-02 2.29933113e-02
      -4.50172015e-02 -9.76434350e-03 -7.55246589e-03 4.81637083e-02
      -4.81711552e-02 4.62365858e-02 -1.93944406e-02 -3.20661590e-02
      -6.29040375e-02 -8.25936124e-02 -3.27845812e-02 -3.04260273e-02
      2.92117167e-02 -2.19178908e-02 1.10971148e-03 -4.21464071e-02
      -1.07472744e-02 -6.04348071e-02 -2.51528472e-02 -1.67971998e-02
      -4.09167372e-02 4.84527573e-02 -9.39742029e-02 -3.92976888e-02
      -7.64761269e-02 -3.90158072e-02 -3.31683531e-02 -9.52514261e-02
      -3.15055959e-02 -4.49964888e-02 1.52581455e-02 -2.97673475e-02
      -1.16014130e-01 -9.79433954e-02 -2.74713896e-02 -4.60623689e-02
      -5.87108210e-02 -7.05031818e-03 -5.41180046e-03 6.65697753e-02
      2.02618204e-02 3.97377461e-02 2.39362456e-02 3.68314981e-02
      -2.35497393e-02 -4.04588282e-02 -2.09333915e-02 -1.59772225e-02
      5.94757795e-02 7.81479180e-02 6.52782023e-02 -1.78042299e-03
      -7.50530930e-03 -5.99770434e-02 -1.34431317e-01 -2.84415986e-02
      4.40798607e-03 6.38621375e-02 -5.39780147e-02 -9.02863070e-02
      -4.16777171e-02 -8.77874030e-04 -1.02651611e-01 -1.06808342e-01
      -2.38884836e-02 -6.45968039e-03 6.04771487e-02 1.41316224e-02
      -3.74132581e-02 -8.68872032e-02 -7.91552886e-02 -1.14789128e-01
      -3.37122604e-02 1.60073936e-02 2.41532214e-02 3.47107947e-02
      1.03483178e-01 1.18414849e-01 4.39914651e-02 5.46937659e-02
      1.46340290e-02 -8.20429921e-02 2.14375537e-02 7.28858411e-02
      6.67252094e-02 9.01067927e-02 7.17547238e-02 2.90262271e-02
      6.98488429e-02 -4.21536863e-02 -3.89188994e-03 -6.43778965e-02
      -9.78311747e-02 -9.69104245e-02 -4.27517965e-02 5.76348677e-02
      6.64404109e-02 5.34641258e-02 5.74949086e-02 -1.37434438e-01
      -1.61411494e-01 -1.40963450e-01 -1.05333142e-01 -3.85697410e-02
      -6.08185492e-03 2.06134152e-02 4.65518460e-02 -5.73317744e-02
      5.62506262e-03 3.89484763e-02 8.89471471e-02 6.70412555e-02
      2.32690368e-02 9.76501592e-03 4.55417670e-02 6.81237951e-02
      6.49866764e-04 5.57697527e-02 1.40732229e-02 1.76169444e-02
      1.16049007e-01 8.29245150e-02 7.10510686e-02 6.40622824e-02
      7.75344968e-02 8.03510919e-02 -5.48114292e-02 -2.45943591e-02
      -7.98162073e-02 -6.32951632e-02 -7.29675367e-02 -8.79335105e-02
      -2.07110345e-02 -2.94968626e-03 -4.27353345e-02 -7.21608242e-03
      3.41164768e-02 -4.75270711e-02 -1.78599060e-02 2.16386449e-02
      1.67369761e-03 1.28660947e-02 2.83334237e-02 1.79534815e-02
      -3.07281166e-02 3.30458372e-03 -9.46231466e-03 7.28797987e-02
      3.13205793e-02 6.10003248e-02 1.58608798e-02 1.62421502e-02
      1.03774304e-02 2.97428202e-03 2.52746772e-02 1.00503606e-03
      7.84867704e-02 -2.88869534e-02 1.18188923e-02 -2.43482785e-03
      2.16011722e-02 2.58546900e-02 -9.77020785e-02 -6.39500096e-02
      9.58124991e-04 -1.64612476e-02 -5.34541495e-02 -2.13651322e-02
      1.91008244e-02 3.00660655e-02 2.04450008e-03 -6.68250769e-02
      -4.82474640e-02 3.39478441e-02 2.81592980e-02 -2.82294117e-02
      -1.76975559e-02 7.09554106e-02 6.09553792e-02 -2.83731846e-03
      6.34080693e-02 4.47034165e-02 -1.10811982e-02 5.15119135e-02
      -7.41152465e-02 -2.11221911e-02 -4.09944402e-03 2.60284021e-02
      6.62494451e-02 3.57451104e-02 5.08528501e-02 3.52147147e-02
      5.22059500e-02 -2.54150573e-02 -9.00274590e-02 -6.04587095e-03
      5.85358180e-02 8.86368975e-02 -6.34650290e-02 -9.09067020e-02
      1.86051137e-03 2.70298831e-02 -9.90482569e-02 -5.23539707e-02
      4.53287847e-02 4.85405661e-02 2.63700187e-02 -2.42074169e-02
      -6.33203462e-02 3.62972580e-02 6.15576692e-02 -3.89525853e-02
      -5.00535928e-02 2.69484650e-02 9.05639678e-02 3.67590711e-02
      8.52384139e-03 2.10288018e-02 3.59662548e-02 7.16324076e-02
      -9.25336182e-02 -5.25862053e-02 2.88692266e-02 6.50264770e-02
      3.89838889e-02 4.91704559e-03 2.31473520e-02 6.26544654e-02
      9.99672860e-02 6.84947520e-03 -2.73583923e-02 2.74441000e-02
      1.71519741e-02 -7.89781660e-03 -1.69256423e-02 -4.53368500e-02
      4.24733981e-02 6.57776371e-02 -1.14655249e-01 -4.01328951e-02
      7.12783188e-02 8.84434283e-02 -1.31715899e-02 -4.61390391e-02
      -7.28227291e-03 7.09225312e-02 5.04440516e-02 -1.13426201e-01
      -6.57070950e-02 4.93101515e-02 2.95751449e-02 -6.30218834e-02
      1.38310537e-01 -7.20537826e-02 -5.91502339e-02 1.20454412e-02
      -5.45360073e-02 -2.60508386e-03 6.03429042e-02 8.57218131e-02
      1.52765110e-01 3.46344896e-02 -6.24092929e-02 -1.36879966e-01
      -1.04305893e-02 -5.68719022e-02 -3.64052178e-03 -2.51058675e-03
      7.04078078e-02 9.13601667e-02 9.64965373e-02 -7.59268273e-03
      -1.07369527e-01 3.03684752e-02 -1.49222240e-01 -3.88769358e-02
      7.86338747e-03 4.61826585e-02 6.84551522e-02 1.77171808e-02
      1.34307407e-02 -4.66990806e-02 4.94627468e-02 -1.25069730e-02
      -1.01695731e-02 -1.05871651e-02 1.33881103e-02 3.83324772e-02
      1.17885005e-02 -3.46142799e-02 -1.41252577e-01 -8.79745558e-03
      -3.71970050e-02 -1.20943533e-02 -9.15275048e-03 4.99893241e-02
      2.11339034e-02 -3.63541357e-02 -4.77522798e-02 -8.96994919e-02
      -1.07808374e-02 1.64356474e-02 1.62469652e-02 3.32547687e-02
      5.23786321e-02 4.63556014e-02 -1.22816553e-02 -4.23344485e-02
      -1.21120708e-02 1.33621125e-02 1.15631381e-02 1.29671209e-02
      -8.32290389e-03 2.84854360e-02 4.75110002e-02 -5.20188920e-02
      -6.40698895e-02 -4.88208905e-02 1.55173447e-02 7.06075281e-02
      6.15063868e-03 5.02489135e-02 5.81252202e-02 6.99742045e-03
      2.38776691e-02 -5.03804274e-02 -2.91107744e-02 2.23049074e-02
      -3.60071892e-03 6.35602046e-03 4.90159802e-02 8.29786882e-02
      8.03308859e-02 -2.95886886e-03 -3.44442800e-02 4.22829166e-02
      3.52135003e-02 -5.06231859e-02 -4.19062413e-02 6.41362742e-02
      1.08456694e-01 7.66519830e-02 -3.01956721e-02 -5.98532110e-02
      -2.17664298e-02 2.25836635e-02 4.71064039e-02 -4.33437005e-02
      3.65661681e-02 1.13407239e-01 4.85616736e-02 -1.98390111e-02
      2.39815246e-02 8.06797817e-02 4.35351282e-02 1.07679507e-02
      -6.96457326e-02 -1.87336188e-02 1.29735082e-01 5.39256446e-02
      -9.68574639e-03 -2.59248856e-02 5.72210662e-02 5.22999503e-02
      -4.64918427e-02 -3.60205695e-02 3.23064663e-02 8.01138505e-02
      6.41778931e-02 1.68160480e-02 2.72574346e-03 6.66949227e-02
      2.06010062e-02 1.08995698e-02 8.88460595e-03 7.83256218e-02
      1.10993467e-01 7.60040209e-02 -6.32452667e-02 3.13019417e-02
      8.58567953e-02 5.89086264e-02 9.46951751e-03 -6.17722049e-02
      -3.98166589e-02 2.90164370e-02 -2.73306035e-02 -8.72768536e-02
      -4.20882255e-02 9.40855534e-05 1.86491664e-03 5.54223992e-02
      3.87953408e-02 3.91740762e-02 5.97206429e-02 -2.05970034e-02
      -3.74378711e-02 1.44335888e-02 5.30039221e-02 -4.97254077e-03
      -4.24014628e-02 4.78934720e-02 1.08348034e-01 1.24569751e-01
      2.48002075e-02 1.15028322e-02 5.03918156e-02 7.29116127e-02
      -1.82009190e-02 -5.12597412e-02 8.52068514e-03 9.38637182e-02
      7.71419406e-02 1.37891807e-02 -1.07685037e-01 -1.52678264e-03
      -1.54722696e-02 -3.25938575e-02 1.94809735e-02 7.53626823e-02
      9.08164233e-02 1.00780718e-01 -3.43203619e-02 -4.46349867e-02
      5.51531799e-02 1.92609858e-02 -7.75000975e-02 -1.76547214e-01
      2.82145608e-02 7.66061395e-02 7.16964453e-02 1.99292786e-02
      -1.78180449e-02 6.08757846e-02 3.74934189e-02 1.46985427e-02
      -1.41342223e-01 -7.78947547e-02 -2.00269576e-02 -4.48542461e-02
      -4.99757007e-02 -4.51771580e-02 2.37394553e-02 6.88136891e-02
      5.37127405e-02 -4.78035683e-04 2.26792302e-02 2.71596690e-03
      1.76398344e-02 -7.12680593e-02 4.35492732e-02 1.28512606e-01
      9.06764790e-02 5.60485199e-02 -4.34194095e-02 2.82967929e-02
      -1.70702357e-02 -3.06608863e-02 -8.58502928e-03 -1.67373251e-02
      8.01201984e-02 8.34194273e-02 5.14375046e-02 2.87091602e-02
      8.95039514e-02 3.40688340e-02 5.86681962e-02 -2.96084173e-02
      -7.13339373e-02 -2.61508510e-04 5.38577586e-02 1.96933262e-02
      4.35218774e-02 4.02617790e-02 4.37683277e-02 6.14381470e-02
      -3.41359898e-02 -1.21409275e-01 -2.52613313e-02 2.69853859e-03
      4.37718891e-02 5.86923435e-02 -1.85435675e-02 3.71565670e-02
      8.57683942e-02 -3.99638191e-02 -2.92274933e-02 1.78732984e-02
      8.02147239e-02 4.20419760e-02 6.00682087e-02 4.66200300e-02
      5.97462058e-02 8.90142396e-02 1.93017293e-02 2.55117957e-02
      4.70436253e-02 7.69413039e-02 9.82708186e-02 8.81334618e-02
      -8.42869002e-03 1.56962741e-02 9.88540277e-02 8.84747058e-02
      -1.05965309e-01 -9.44707543e-03 -1.20918860e-03 2.01807152e-02
      3.76337543e-02 -5.22532165e-02 -1.43417818e-02 7.06778988e-02
      -4.75261696e-02 -8.92846361e-02 5.21840304e-02 5.72903045e-02
      4.84137945e-02 6.13824949e-02 -6.91785887e-02 -4.50845324e-02
      5.37777171e-02 -3.41636464e-02 7.23965690e-02 8.19883868e-02
      2.91805826e-02 7.19717219e-02 7.33929649e-02 5.39609883e-03
      -1.54665755e-02 5.05927503e-02 9.11441743e-02 1.08158194e-01
      1.63395748e-01 9.64953378e-02 8.10977072e-02 8.55004936e-02
      -5.54978615e-03 -5.47745340e-02 -1.48664732e-02 5.91452494e-02
      -1.52125537e-01 -2.32727174e-02 5.67912869e-02 3.96844186e-02
      8.39896128e-02 -1.33250840e-02 -4.86177839e-02 2.65244092e-03
      -1.22036405e-01 -2.08732724e-01 -4.18656804e-02 1.06022116e-02
      1.53436903e-02 1.01246044e-01 4.85590026e-02 3.71703096e-02
      4.78735603e-02 -1.18234217e-01 5.52536175e-02 5.20841070e-02
      8.32376555e-02 6.46078810e-02 6.01633079e-02 6.27145590e-03
      -2.43922360e-02 6.03690743e-04 1.80903543e-02 7.91708194e-03
      2.93055885e-02 5.83424121e-02 3.79268192e-02 9.16393548e-02
      5.42001054e-02 4.62098680e-02 6.26816303e-02 2.48913188e-02
      -1.01458937e-01 -2.97303020e-04 -3.30627151e-02 8.92942399e-03
      9.50126350e-02 5.29644713e-02 4.81832214e-02 7.25832283e-02
      -7.00800121e-02 -5.55053838e-02 -2.30550329e-04 -8.66747350e-02
      -1.46135792e-01 -1.78707257e-01 6.40302571e-03 4.28080373e-02
      4.35073748e-02 -5.13283834e-02 6.43902109e-04 3.90487164e-02
      7.36528402e-03 4.41845208e-02 1.03567980e-01 7.83432424e-02
      5.62470146e-02 7.39747658e-02 2.71683233e-03 5.42755872e-02
      1.65444296e-02 -7.31925219e-02 -1.27830869e-02 7.52756670e-02
      7.55917728e-02 9.14466158e-02 8.42671469e-02 6.87731951e-02
      -6.56314045e-02 5.42930253e-02 2.27832906e-02 2.69431956e-02
      -8.66263136e-02 -5.68038272e-03 -1.22993872e-01 -1.37265354e-01
      -1.32934064e-01 -1.31212667e-01 7.19885435e-03 1.58463977e-02
      -5.78069733e-03 -4.21383083e-02 3.68876494e-02 -7.85109103e-02
      -6.97345510e-02 -1.48783043e-01 2.33415253e-02 1.94743089e-02
      -1.46829139e-03 6.65466264e-02 1.33707200e-03 6.62564039e-02
      -3.70324589e-02 -1.05631519e-02 -2.27383096e-02 9.18513443e-03
      1.55443382e-02 -1.73524451e-02 4.21508551e-02 5.86015778e-03
      9.30763632e-02 -1.55656766e-02 -7.60439737e-03 8.31405073e-03
      -7.75084198e-02 -3.90002243e-02 1.69145577e-02 -3.98548134e-02
      -6.45133108e-02 9.86567326e-03 -2.88088601e-02 -1.40283797e-02
      -7.85674006e-02 -7.31416494e-02 -3.14773768e-02 4.14382592e-02
      5.00318855e-02 -2.14781836e-02 -3.00510302e-02 -8.73577297e-02
      -8.39812215e-03 -4.86991964e-02 7.08414167e-02 3.16980518e-02
      -4.75900859e-04 4.05387729e-02 -3.30382846e-02 7.70539716e-02
      -1.48105128e-02 -3.18199699e-03 5.06900847e-02 6.10611737e-02
      3.78577374e-02 2.18873266e-02 6.01016060e-02 1.46009009e-02
      5.71833551e-02 -5.72373681e-02 1.04026310e-02 4.91472296e-02
      1.80863281e-05 -9.11251351e-04 1.67444088e-02 4.94666398e-02
      -1.72514394e-02 -1.50813377e-02 -1.03236847e-01 -3.61763090e-02
      1.38448859e-02 -1.29672969e-02 5.04758731e-02 1.25460997e-02
      2.53672022e-02 -1.00377746e-01 -1.50308292e-02 -1.36030465e-01
      -6.89163879e-02 -8.45229253e-02 1.30202789e-02 -9.99535434e-03
      1.48423156e-02 5.12567796e-02 -2.11953442e-03 2.38862820e-02
      -7.90228620e-02 -4.31211144e-02 2.60782940e-03 -2.58186944e-02
      -3.92246023e-02 -9.62062459e-03 4.07695435e-02 -6.74205422e-02
      4.34963554e-02 -4.53855395e-02 -6.03867434e-02 -7.50561506e-02
      -3.93014355e-03 -3.79578257e-03 1.90893356e-02 3.71581055e-02
      -5.60796186e-02 -1.07237452e-03 -7.58852959e-02 -5.68444021e-02
      -5.47316335e-02 -5.76945245e-02 -5.78757003e-02 -2.85372753e-02
      -1.02755008e-02 -2.71184035e-02 -5.17681753e-03 -3.63234580e-02
      -3.99843305e-02 -1.47223677e-02 -6.14612736e-02 -3.19245756e-02
      1.35839451e-02 4.24635783e-02 -1.59764811e-02 1.55460685e-02
      -2.13125199e-02 -3.85294147e-02 -6.15875572e-02 -7.54984096e-02
      -6.91590160e-02 -1.99421518e-03 -7.40430225e-03 -3.14706117e-02
      -1.34003686e-03 -3.80041264e-02 -1.09188743e-02 -3.33036780e-02
      -8.02463666e-02 -9.27321464e-02 -4.66251522e-02 -3.71788181e-02
      -2.83684097e-02 2.19897013e-02 -3.69690731e-03 8.44337977e-03
      -2.70540603e-02 -2.50996333e-02 -8.52579102e-02 -1.36785462e-01
      -3.12321391e-02 -4.44564363e-03 3.55243012e-02 9.11401212e-03
      2.12684777e-02 3.73876840e-02 -6.49839938e-02 -6.83464333e-02
      -2.24790778e-02 -1.04886396e-02 -6.58687353e-02 5.47966734e-03
      -3.44072841e-02 -1.26780069e-03 2.94822678e-02 6.36226013e-02
      2.76562804e-03 -9.12787113e-03 -1.11962371e-02 -1.33529706e-02
      1.15955155e-02 -2.75537856e-02 -1.85955334e-02 5.60006946e-02</_></support_vectors>
  <uncompressed_sv_total>55</uncompressed_sv_total>
  <uncompressed_support_vectors>
    <_>
      1.50129661e-01 7.51143843e-02 9.00379196e-02 7.59822428e-02
      2.67363220e-01 2.43968949e-01 1.43193930e-01 2.39523932e-01
      2.05254018e-01 8.45890567e-02 7.05368519e-02 1.33604422e-01
      8.54969099e-02 2.76628554e-01 2.76628554e-01 1.90505058e-01
      2.02393681e-01 1.08458526e-01 1.09647132e-01 6.17930442e-02
      1.11891359e-01 5.52652217e-02 2.76628554e-01 5.31681031e-02
      1.61548957e-01 1.39274418e-01 1.28202036e-01 1.05269440e-01
      8.22248086e-02 1.79756418e-01 7.13873804e-02 2.76628554e-01
      1.53155014e-01 2.16550767e-01 1.83562443e-01 1.27641842e-01
      9.79757681e-02 6.73232004e-02 8.05182755e-02 5.21962307e-02
      2.63431102e-01 1.70224756e-01 1.21051125e-01 7.51300082e-02
      7.11680874e-02 2.43050396e-01 1.34836167e-01 8.77746567e-02
      5.34269921e-02 1.93715870e-01 1.79635659e-01 1.39073595e-01
      9.42953601e-02 1.91623926e-01 1.18454531e-01 1.13428444e-01
      1.15231708e-01 1.07926033e-01 2.50244588e-01 1.47393629e-01
      1.09499499e-01 7.88677484e-02 7.03445822e-02 2.71238774e-01
      2.71238774e-01 2.71238774e-01 2.71238774e-01 2.71238774e-01
      2.12050393e-01 1.18210919e-01 1.15417220e-01 1.67963669e-01
      3.95001657e-02 2.84577422e-02 3.04907635e-02 7.92527758e-03
      2.73941439e-02 1.97875928e-02 1.34940324e-02 1.71779394e-02
      5.47943674e-02 1.29411951e-01 2.47877583e-01 3.12410623e-01
      8.33054073e-03 3.14411968e-02 1.64002869e-02 1.49944052e-02
      2.14929543e-02 9.48076472e-02 5.99949546e-02 4.24443871e-01
      4.41795915e-01 4.05650623e-02 4.49133106e-02 2.14848984e-02
      1.09069282e-02 2.13211644e-02 3.99581566e-02 1.22557268e-01
      4.41795915e-01 4.41795915e-01 1.77199077e-02 2.28198022e-02
      2.66890991e-02 2.28795707e-02 3.49445455e-02 8.30672532e-02
      2.52285063e-01 1.85864583e-01 1.65443689e-01 3.92107014e-03
      1.50557589e-02 6.62159780e-03 7.59327924e-03 1.23106875e-02
      2.05661699e-01 2.90841103e-01 5.98823018e-02 2.93630622e-02
      6.05260534e-03 1.23862602e-01 9.40584317e-02 2.25235298e-02
      7.19880462e-02 2.90841103e-01 2.80342817e-01 2.90841103e-01
      2.90841103e-01 7.54202949e-03 4.32825387e-02 2.65396107e-02
      1.68481860e-02 2.25258134e-02 2.34277651e-01 2.90841103e-01
      7.80486763e-02 5.30646034e-02 4.66759391e-02 2.90841103e-01
      2.10894644e-01 3.16581614e-02 9.37281996e-02 2.90841103e-01
      2.08703071e-01 3.79347391e-02 2.32173223e-02 1.85048133e-02
      3.34019393e-01 2.40847439e-01 4.47469354e-02 1.33542597e-01
      2.69844741e-01 4.10572514e-02 2.41956934e-02 2.27968283e-02
      9.41924565e-03 7.19402432e-02 2.86979061e-02 2.30390448e-02
      8.44498631e-03 3.30504403e-02 2.44137272e-01 4.20423001e-02
      3.18695419e-02 1.51974440e-01 4.63098198e-01 4.63098198e-01
      6.37342632e-02 1.65729389e-01 2.86718160e-01 4.96211760e-02
      3.47089693e-02 3.85713801e-02 5.77937365e-02 1.75563142e-01
      7.32133016e-02 5.07845469e-02 1.00202113e-02 3.46506573e-02
      2.21830681e-02 1.31323300e-02 3.38698886e-02 2.35868134e-02
      1.63961038e-01 3.50376144e-02 1.26002133e-01 9.18689296e-02
      3.04812957e-02 3.99234332e-02 4.46699075e-02 5.50017059e-02
      6.64148107e-02 1.59340367e-01 6.03989772e-02 1.42473444e-01
      1.41409278e-01 6.42951429e-02 6.11326024e-02 9.79916304e-02
      7.24978670e-02 2.62876302e-02 1.83524847e-01 8.91934633e-02
      1.81863412e-01 1.51376724e-01 5.13643213e-02 2.95023680e-01
      4.49195355e-01 4.49195355e-01 6.98824227e-02 2.90798068e-01
      1.81203246e-01 2.45789140e-01 2.20799357e-01 1.17079638e-01
      1.44619988e-02 6.34285659e-02 3.94129008e-02 9.62606072e-03
      2.78230831e-02 1.22914510e-02 1.31146312e-02 1.14787081e-02
      1.04050506e-02 5.71164228e-02 4.05693531e-01 3.87001812e-01
      2.42064986e-02 3.67508829e-02 9.60120931e-03 9.89732612e-03
      9.48394928e-03 1.66632310e-02 5.40845171e-02 4.05693531e-01
      4.05693531e-01 6.39150990e-03 3.09553817e-02 2.46301740e-02
      2.16912739e-02 1.39675513e-02 1.80151705e-02 6.11088574e-02
      4.05693531e-01 4.05693531e-01 1.40066594e-02 1.66095737e-02
      1.90844350e-02 8.52097850e-03 5.31956600e-03 8.70538782e-03
      3.88357267e-02 3.38834316e-01 3.38834316e-01 2.14866698e-02
      1.49722658e-02 1.73879846e-03 3.85858258e-03 5.86884981e-03
      1.01045575e-02 6.02002107e-02 3.38834316e-01 3.38834316e-01
      1.43046351e-02 3.56593803e-02 2.07901597e-02 1.92763470e-02
      2.79988237e-02 2.82978546e-02 3.89842466e-02 3.38834316e-01
      3.38834316e-01 2.42153220e-02 9.84773133e-03 7.71044148e-03
      3.58418701e-03 4.80314484e-03 4.42292215e-03 7.01927096e-02
      3.38834316e-01 3.38834316e-01 3.79779376e-02 2.33507246e-01
      5.43111525e-02 1.61963552e-02 3.85347046e-02 1.99461523e-02
      1.09368369e-01 2.36545190e-01 3.07476997e-01 1.46052670e-02
      1.30422831e-01 6.96944743e-02 3.56873237e-02 4.24229354e-02
      6.24518655e-02 6.09011650e-02 2.18991842e-02 2.63378248e-02
      6.59329295e-02 4.13860053e-01 1.15915328e-01 2.65109241e-02
      2.52846833e-02 5.12027368e-02 9.23239812e-02 2.83040941e-01
      3.23271841e-01 6.08018152e-02 4.13860053e-01 1.68966383e-01
      3.05271186e-02 6.33272231e-02 2.93601882e-02 2.50559337e-02
      1.29455756e-02 2.46822331e-02 9.74139273e-02 4.13860053e-01
      1.44206494e-01 2.12397389e-02 1.97240841e-02 1.27765322e-02
      3.45073044e-02 1.26358513e-02 2.27257442e-02 1.42002359e-01
      6.46823525e-01 1.81731448e-01 2.54801884e-02 2.89333835e-02
      4.28707339e-02 2.05106512e-02 1.06667485e-02 1.97649263e-02
      3.60799320e-02 1.50755152e-01 4.05579098e-02 3.54848653e-02
      1.21485665e-02 2.52673291e-02 1.15055032e-02 1.86884403e-02
      2.37901900e-02 1.37667060e-01 6.46823525e-01 1.23557575e-01
      1.53769758e-02 2.37507746e-02 2.16439012e-02 1.48393642e-02
      1.51738962e-02 1.45594664e-02 1.39185730e-02 1.74155936e-01
      1.93632003e-02 2.65121274e-02 2.14629471e-02 2.22366061e-02
      5.55368625e-02 2.98055023e-01 1.07450679e-01 7.85213988e-03
      2.10916474e-02 6.83521107e-03 1.20053813e-02 2.15176288e-02
      1.55176679e-02 1.01909257e-01 3.58300149e-01 3.45847934e-01
      6.31449465e-03 2.55840067e-02 1.24959899e-02 1.44343711e-02
      1.66919474e-02 1.49713019e-02 1.10797420e-01 3.58300149e-01
      3.58300149e-01 1.55686408e-01 2.94658333e-01 1.25835408e-02
      6.16866630e-03 2.52901018e-02 2.43647639e-02 1.10573083e-01
      3.58300149e-01 3.19739372e-01 5.75488880e-02 4.51521650e-02
      2.22046319e-02 1.36399856e-02 2.69663502e-02 2.22365409e-02
      5.54453395e-02 3.22322965e-01 3.22322965e-01 2.32252907e-02
      1.50936525e-02 8.27502459e-03 7.65833631e-03 5.74597949e-03
      1.32849002e-02 6.94060773e-02 3.22322965e-01 3.22322965e-01
      2.89247409e-02 1.31248133e-02 1.68941673e-02 5.81747759e-03
      7.00944383e-03 4.72653359e-02 5.21290340e-02 3.22322965e-01
      1.55106574e-01 1.00023240e-01 3.97404283e-02 2.82206554e-02
      2.51013078e-02 4.40693982e-02 7.34338388e-02 3.22322965e-01
      3.22322965e-01 2.93397188e-01 1.07650980e-01 3.71952429e-02
      4.24960032e-02 2.59786956e-02 6.61859065e-02 3.22322965e-01
      6.84293285e-02 2.94845223e-01 2.94845223e-01 1.19932238e-02
      8.05562641e-03 9.43712518e-03 3.50297475e-03 4.87635238e-03
      5.35595678e-02 7.87094906e-02 2.94845223e-01 2.94845223e-01
      4.03187051e-02 2.94845223e-01 3.89362462e-02 5.14468085e-03
      1.30962525e-02 6.24558926e-02 2.94845223e-01 2.94845223e-01
      2.19819054e-01 1.42356241e-02 7.56987976e-03 1.28385127e-02
      6.78121252e-03 2.33018603e-02 2.94845223e-01 2.94845223e-01
      9.06025693e-02 1.12844452e-01 3.01455949e-02 1.85232475e-01
      2.32251640e-02 6.77748211e-03 1.77216493e-02 2.94845223e-01
      4.59233299e-02 1.36538446e-01 1.53708369e-01 9.54944789e-02
      3.88560891e-01 1.16936520e-01 7.25270109e-03 2.10788529e-02
      3.40233818e-02 1.27812810e-02 7.66377477e-03 1.48030100e-02
      1.08294249e-01 3.88560891e-01 1.31384999e-01 2.71665920e-02
      1.70526970e-02 2.15453263e-02 3.19454581e-01 4.54910547e-02
      1.16417170e-01 8.89442936e-02 3.88560891e-01 6.93314224e-02
      1.27814226e-02 2.25230083e-02 2.61761606e-01 1.31368101e-01
      1.88217480e-02 4.09831479e-02 8.55456293e-02 3.88560891e-01
      1.50226727e-01 9.60914940e-02 7.31902272e-02 1.70590237e-01
      6.61093369e-02 8.16848967e-03 7.72459758e-03 6.39690086e-02
      3.51458997e-01 8.83966759e-02 3.59764136e-02 2.16035042e-02
      7.70152658e-02 1.08760409e-01 1.04080420e-02 8.54850560e-03
      9.81812552e-03 6.42017946e-02 1.46263493e-02 2.22152323e-02
      2.30648555e-02 1.24781072e-01 3.51458997e-01 1.01315342e-02
      9.30866692e-03 4.25925106e-02 3.51458997e-01 1.22993477e-01
      1.24670193e-01 9.61281806e-02 3.51458997e-01 3.51458997e-01
      1.39341606e-02 5.24204178e-03 1.31856985e-02 3.37613672e-01
      1.03287473e-01 1.53138831e-01 8.83294493e-02 3.51458997e-01
      7.17024654e-02 2.50381351e-01 1.59971386e-01 1.80251136e-01
      3.47378701e-01 5.47128543e-02 2.46606078e-02 1.53329000e-02
      3.74555811e-02 1.04601458e-01 2.04743117e-01 7.77262375e-02
      6.49304837e-02 9.53393877e-02 3.08860317e-02 3.17640342e-02
      2.19527204e-02 8.32874328e-02 3.47378701e-01 1.80057548e-02
      1.17163397e-02 6.65904284e-02 3.47378701e-01 1.34727821e-01
      1.35783732e-01 9.67558771e-02 3.47378701e-01 3.47378701e-01
      1.81984790e-02 1.76095106e-02 2.61419155e-02 7.31315613e-02
      2.20474452e-02 3.44609320e-02 2.37018429e-02 3.47378701e-01
      1.08857282e-01 6.36547282e-02 4.09342982e-02 7.36903548e-02
      4.02760096e-02 3.96487638e-02 4.94934507e-02 5.79892397e-02
      1.56280488e-01 3.87615055e-01 1.17767632e-01 5.80719523e-02
      6.42432123e-02 3.10843438e-02 5.42296246e-02 3.76326405e-02
      8.74163806e-02 3.87615055e-01 3.87615055e-01 8.00206140e-03
      1.57612395e-02 1.34795476e-02 1.54944975e-02 1.57438740e-02
      2.11800840e-02 1.42979175e-02 3.87615055e-01 3.87615055e-01
      1.49406670e-02 5.13380812e-03 5.30988351e-03 9.16777831e-03
      2.78429799e-02 1.76782738e-02 2.82639619e-02 3.87615055e-01
      3.44688982e-01 5.25215976e-02 2.78421957e-02 1.26451747e-02
      1.21451169e-02 2.37753224e-02 1.08249625e-02 4.12444100e-02
      3.44688982e-01 3.44688982e-01 2.20904276e-02 4.86321151e-02
      1.78459715e-02 4.80781607e-02 2.17144899e-02 1.93955116e-02
      3.98284979e-02 3.44688982e-01 3.44688982e-01 8.32263846e-03
      8.36020708e-03 7.30730174e-03 9.41245630e-03 1.62722841e-02
      8.08371231e-03 1.87278781e-02 3.44688982e-01 3.44688982e-01
      9.60870087e-03 2.98753101e-02 2.06049159e-02 1.15481950e-01
      9.29927602e-02 3.81079763e-02 7.82488137e-02 3.44688982e-01
      2.71437675e-01 5.82375154e-02 1.04461379e-01 4.27908078e-02
      1.36906371e-01 4.70222645e-02 4.28954512e-02 5.36892153e-02
      2.71437675e-01 2.31611177e-01 4.83870879e-02 5.71008958e-02
      4.66468073e-02 1.81676209e-01 8.78440291e-02 7.72898123e-02
      8.52008238e-02 2.23697081e-01 2.71437675e-01 4.06349637e-02
      4.43453267e-02 4.70895134e-02 2.71437675e-01 2.71437675e-01
      8.46567973e-02 1.68558985e-01 2.71437675e-01 2.71437675e-01
      1.58171773e-01 1.09578058e-01 2.24740908e-01 2.71437675e-01
      1.54974654e-01 4.35410924e-02 5.62006570e-02 2.06424534e-01
      2.95687795e-01 1.49791650e-02 1.56591702e-02 1.74625423e-02
      6.31635487e-02 3.32915224e-02 4.33059633e-02 4.37107161e-02
      2.84617573e-01 2.95687795e-01 1.67642552e-02 1.92026701e-02
      5.60809970e-02 2.95687795e-01 9.89944115e-02 8.53816271e-02
      4.01837453e-02 2.95687795e-01 2.95687795e-01 8.94367769e-02
      5.64269908e-02 1.12643912e-01 2.09355175e-01 2.48754676e-02
      1.23226224e-02 1.37058282e-02 2.95687795e-01 2.95687795e-01
      8.61719176e-02 7.34145865e-02 1.16570324e-01 2.95687795e-01
      3.88168208e-02 1.15143824e-02 1.71944629e-02 2.95687795e-01
      4.50678647e-01 2.29260195e-02 1.10279517e-02 2.36030482e-02
      2.57990271e-01 1.42384574e-01 1.74789891e-01 1.71285376e-01
      4.50678647e-01 4.50678647e-01 1.51114501e-02 8.68260115e-03
      8.95217620e-03 4.02755253e-02 2.04126406e-02 3.40580977e-02
      3.24072354e-02 4.50678647e-01 5.15996106e-02 1.69492308e-02
      1.84687041e-02 9.83151258e-04 4.03561182e-02 1.77086070e-02
      1.93886515e-02 1.41962972e-02 5.99975325e-02 8.72692913e-02
      2.69110054e-02 2.38371175e-02 1.53313112e-02 5.46144582e-02
      1.69775486e-02 2.55015604e-02 1.05565805e-02 8.89171883e-02
      4.89268303e-01 9.11110081e-03 1.03104645e-02 6.60533877e-03
      1.86043475e-02 8.40345398e-03 1.12766800e-02 7.84264877e-03
      4.89268303e-01 4.89268303e-01 2.07164139e-02 8.61223228e-03
      5.39140683e-03 1.63638946e-02 9.05716419e-03 1.13991443e-02
      1.19756935e-02 4.89268303e-01 7.45625570e-02 3.25670019e-02
      2.37410963e-02 2.05575116e-02 4.51638438e-02 1.56449620e-02
      1.74377579e-02 1.39745316e-02 8.34449977e-02 7.15419129e-02
      4.27635647e-02 2.78520789e-02 1.64826754e-02 6.89624697e-02
      1.38702756e-02 1.82789098e-02 1.37861613e-02 6.90309554e-02
      3.84335399e-01 1.44497007e-02 8.50099139e-03 1.40225971e-02
      1.41453790e-02 3.33654694e-03 8.98306165e-03 9.54353344e-03
      3.84335399e-01 3.84335399e-01 1.75035335e-02 1.74330659e-02
      8.34557787e-02 3.84335399e-01 2.03515515e-01 9.04927999e-02
      1.26629367e-01 3.84335399e-01 5.18827550e-02 2.82151997e-02
      1.99402850e-02 2.45301258e-02 4.75406535e-02 5.50242420e-03
      1.25309518e-02 1.51767749e-02 4.96989712e-02 7.46662170e-02
      4.12633531e-02 2.33768392e-02 8.28953162e-02 3.21194947e-01
      1.09167486e-01 6.86010644e-02 8.75213221e-02 1.78137258e-01
      2.32636735e-01 1.40506774e-02 1.18609266e-02 7.30704069e-02
      2.73333460e-01 1.95631176e-01 6.80804849e-02 9.35695991e-02
      2.73333460e-01 2.73333460e-01 7.60017857e-02 7.73202479e-02
      2.34084845e-01 2.73333460e-01 1.26775458e-01 3.25294361e-02
      3.53598520e-02 2.16470957e-01 1.78486630e-01 1.53313344e-02
      1.49384011e-02 5.85275255e-02 2.64768958e-01 8.92918333e-02
      5.47379404e-02 7.53095001e-02 2.73333460e-01 2.73333460e-01
      5.15011251e-02 6.66630268e-02 1.45640373e-01 2.73333460e-01
      5.32289520e-02 2.76603904e-02 4.40338179e-02 2.73333460e-01
      3.23324770e-01 1.34919658e-01 1.08348832e-01 3.23324770e-01
      3.23324770e-01 8.06768909e-02 1.51561685e-02 1.80971846e-02
      3.23324770e-01 3.23324770e-01 9.06657130e-02 6.32255599e-02
      7.83359036e-02 1.77402347e-01 2.87210830e-02 9.94064659e-03
      2.93945335e-02 3.23324770e-01 3.10462981e-01 7.47033656e-02
      8.72915238e-02 1.98260263e-01 3.23324770e-01 3.95783484e-02
      1.65859815e-02 1.65559817e-02 1.24825589e-01 2.74042133e-02
      1.32470941e-02 2.42323503e-02 2.77521312e-02 6.82511479e-02
      1.87657718e-02 1.39769558e-02 1.44976592e-02 4.56404164e-02</_>
    <_>
      4.28992510e-02 8.10238421e-02 9.58348960e-02 1.62045076e-01
      9.46766213e-02 2.73523517e-02 6.64005727e-02 6.60706386e-02
      6.94537461e-02 3.73988971e-02 5.95770143e-02 1.15703426e-01
      8.41148272e-02 8.52600560e-02 1.69760119e-02 3.42861302e-02
      2.18303278e-02 3.64619605e-02 4.38469708e-01 2.39350900e-01
      1.17177621e-01 1.11614674e-01 8.48093554e-02 3.61027084e-02
      6.53007701e-02 5.76204769e-02 4.38469708e-01 4.38469708e-01
      1.06644578e-01 6.43092394e-02 4.20339033e-02 5.44953905e-02
      2.09387448e-02 5.29356748e-02 2.11183410e-02 4.38469708e-01
      3.95331196e-02 4.47757393e-02 6.46357164e-02 1.49989743e-02
      5.76997362e-02 1.96623188e-02 2.68379599e-02 4.56946120e-02
      5.05684391e-02 9.56127420e-02 5.44371530e-02 4.32464331e-02
      1.77977942e-02 1.08295016e-01 3.36742662e-02 4.14820202e-02
      5.57535626e-02 1.35031536e-01 4.75034475e-01 6.79114610e-02
      5.27240597e-02 7.26401247e-03 3.08812279e-02 2.94323615e-03
      3.14761698e-02 2.87462771e-02 4.75034475e-01 4.75034475e-01
      6.52087480e-02 5.77218160e-02 6.57976326e-03 4.97074164e-02
      4.64367215e-03 4.40393128e-02 5.54323830e-02 4.75034475e-01
      1.71044305e-01 4.78906780e-02 2.29695104e-02 2.99812388e-02
      1.11925907e-01 3.56528573e-02 4.32211272e-02 4.33234870e-02
      2.01862827e-01 3.04622918e-01 4.89238501e-02 1.80957466e-02
      2.61521097e-02 9.06082988e-02 4.18234058e-02 5.12231924e-02
      7.02805743e-02 2.66595423e-01 3.75902385e-01 5.43385595e-02
      3.39245461e-02 1.96369141e-02 6.08263016e-02 3.55885178e-02
      1.00582652e-01 1.14370055e-01 3.75902385e-01 3.75902385e-01
      5.12404442e-02 2.25740913e-02 2.67320890e-02 1.44024670e-01
      1.29991308e-01 2.05854475e-01 1.96088940e-01 3.75902385e-01
      2.57111639e-01 9.84313190e-02 4.09206711e-02 6.35889731e-03
      1.13397755e-01 7.88093433e-02 8.83820727e-02 9.09700692e-02
      2.57111639e-01 2.57111639e-01 1.14341095e-01 8.17988068e-02
      3.90046388e-02 2.22117767e-01 1.27199426e-01 9.54129174e-02
      1.00405589e-01 2.57111639e-01 1.30193964e-01 3.70728448e-02
      4.01700400e-02 3.13774794e-02 2.09281802e-01 1.86685979e-01
      1.89893231e-01 1.56955019e-01 2.36098409e-01 2.57111639e-01
      1.87266722e-01 2.37325847e-01 1.90879121e-01 2.57111639e-01
      1.31452993e-01 1.03711165e-01 1.01313896e-01 2.57111639e-01
      5.90006337e-02 4.90173735e-02 7.26042241e-02 6.68275505e-02
      1.02137595e-01 7.32488856e-02 6.33879304e-02 7.63705596e-02
      7.14583397e-02 4.43043858e-02 5.52871637e-02 1.29284054e-01
      1.03768446e-01 7.06376880e-02 9.59410518e-02 8.31000209e-02
      1.54495940e-01 9.01724324e-02 3.52038622e-01 1.50548384e-01
      1.76705495e-01 1.30589217e-01 1.77558705e-01 5.90289012e-02
      8.66489634e-02 1.48946583e-01 3.52038622e-01 3.52038622e-01
      8.99077281e-02 1.34266466e-01 8.21131393e-02 6.40319586e-02
      1.53233588e-01 2.20834091e-01 3.52038622e-01 3.52038622e-01
      3.24915737e-01 1.33153230e-01 9.03328434e-02 1.00028746e-01
      9.43899155e-02 7.87726045e-03 3.38696153e-03 5.85909886e-03
      2.32411340e-01 3.24915737e-01 3.16054821e-02 9.45118349e-03
      8.82165041e-03 8.17334279e-03 9.76629835e-03 3.77714843e-03
      5.94421662e-03 3.24915737e-01 3.24915737e-01 1.25316486e-01
      1.11493669e-01 2.60952145e-01 3.24915737e-01 3.68769355e-02
      2.49622460e-03 7.09396461e-03 1.59224600e-01 3.24915737e-01
      1.25924975e-01 1.08062774e-01 5.49644344e-02 5.12381867e-02
      2.88393963e-02 3.89731885e-03 2.06898861e-02 3.24915737e-01
      3.47814888e-01 1.10113993e-02 5.20648994e-03 2.46451003e-03
      5.09149395e-03 3.75367468e-03 3.43555631e-03 5.83312428e-03
      3.47814888e-01 3.47814888e-01 8.08217097e-03 7.26793008e-03
      2.57179304e-03 5.13242465e-03 3.69573594e-03 6.12744642e-03
      1.32705476e-02 3.47814888e-01 3.47814888e-01 6.61305636e-02
      4.96955886e-02 1.62059516e-02 1.36853792e-02 1.32005699e-02
      7.11446023e-03 5.14583774e-02 3.47814888e-01 3.47814888e-01
      1.10553224e-02 1.28553510e-02 8.74578673e-03 2.83528883e-02
      4.64633964e-02 4.61276025e-02 1.11734517e-01 3.47814888e-01
      3.23111743e-01 6.98441267e-03 4.69382526e-03 2.18663402e-02
      9.72285047e-02 3.77950147e-02 4.67905737e-02 4.83579785e-02
      3.23111743e-01 1.73277557e-01 7.91920815e-03 3.20979813e-03
      7.33096227e-02 2.84012258e-01 8.55743140e-02 1.03211083e-01
      8.05002004e-02 2.79062331e-01 3.20587754e-01 9.25776083e-03
      1.25295306e-02 7.70911500e-02 3.23111743e-01 1.13840587e-01
      7.47263953e-02 7.64980838e-02 3.23111743e-01 8.19620937e-02
      7.50598591e-03 9.31952428e-03 2.17741638e-01 3.23111743e-01
      1.41529903e-01 7.65184313e-02 4.41782176e-02 1.57708868e-01
      4.77715470e-02 2.11097766e-02 1.45528149e-02 7.98469931e-02
      2.73569673e-01 8.10456201e-02 8.79652947e-02 5.78055307e-02
      7.03758821e-02 2.29084879e-01 1.22046880e-01 1.51997030e-01
      1.48073301e-01 3.37211043e-01 3.52504700e-01 5.82097247e-02
      1.46780321e-02 1.65571332e-01 2.80539282e-02 3.25670056e-02
      2.70588491e-02 1.89515114e-01 3.52504700e-01 9.40126330e-02
      6.31155893e-02 3.73564810e-02 3.41605991e-02 1.20480858e-01
      8.37491006e-02 1.16586901e-01 1.49954498e-01 3.52504700e-01
      3.52504700e-01 1.28263220e-01 3.24547589e-02 8.09775963e-02
      2.39561543e-01 5.30342646e-02 6.94243163e-02 6.39263168e-02
      1.17359541e-01 2.00275972e-01 3.40061300e-02 3.58542576e-02
      3.09621304e-01 1.72509953e-01 1.57442018e-02 2.01456361e-02
      1.83919352e-02 8.79062042e-02 2.48019293e-01 1.43407166e-01
      1.29391611e-01 3.09621304e-01 1.18879125e-01 2.68889051e-02
      5.12799546e-02 7.32734054e-02 3.09621304e-01 3.09621304e-01
      6.15204461e-02 2.83390060e-02 1.78649276e-01 8.31796229e-02
      9.45584662e-03 1.14559624e-02 2.98970025e-02 3.09621304e-01
      3.09621304e-01 1.45779386e-01 8.60933065e-02 2.50848532e-01
      2.71669757e-02 3.13570946e-02 5.40610701e-02 1.85037464e-01
      4.04900610e-01 6.58068955e-02 6.42915629e-03 1.01315277e-02
      2.19604652e-02 3.00056159e-01 2.02758506e-01 1.79067433e-01
      1.77328631e-01 3.32895637e-01 2.98031904e-02 4.24274197e-03
      1.39980530e-02 1.40782386e-01 3.06140655e-03 1.10237282e-02
      3.19506079e-02 1.54249206e-01 4.04900610e-01 6.84427842e-02
      1.32561056e-02 1.34490281e-02 7.43332785e-03 1.21624485e-01
      9.18082297e-02 8.63193497e-02 2.61912167e-01 4.04900610e-01
      4.21999916e-02 1.25365779e-02 1.10013615e-02 5.01530543e-02
      3.12611073e-01 1.19530290e-01 7.36002252e-02 6.48384467e-02
      1.46068692e-01 2.26373840e-02 1.63221098e-02 5.72124720e-02
      3.12611073e-01 2.64322728e-01 8.06741044e-03 7.54082482e-03
      2.86038741e-02 3.12611073e-01 1.54641896e-01 9.05208215e-02
      1.55762464e-01 3.12611073e-01 2.26815626e-01 5.69829717e-02
      3.28678600e-02 1.04760632e-01 3.12611073e-01 5.06824255e-02
      2.28535030e-02 2.22262349e-02 1.52212262e-01 1.13652699e-01
      3.60334688e-03 4.68463311e-03 5.95264025e-02 3.12611073e-01
      3.12611073e-01 5.50970249e-02 5.53576723e-02 1.42220765e-01
      3.19028199e-02 7.66273541e-03 8.54503457e-03 5.65830953e-02
      3.64096135e-01 1.80571124e-01 5.87507039e-02 6.23096526e-02
      8.22360590e-02 7.21065188e-03 7.40050105e-03 7.00997794e-03
      1.00690976e-01 3.64096135e-01 2.07462683e-01 1.25969164e-02
      6.14453573e-03 1.01482831e-02 9.83297452e-03 2.56190798e-03
      9.69787594e-03 5.80955148e-02 3.64096135e-01 3.64096135e-01
      5.84572479e-02 2.31618360e-02 2.61968840e-02 4.36251936e-03
      4.01271833e-03 9.89727676e-03 3.88991274e-02 3.64096135e-01
      3.64096135e-01 2.84260213e-01 7.24150017e-02 1.92673765e-02
      1.26988944e-02 1.72332507e-02 1.53800147e-02 7.25188628e-02
      2.95339078e-01 1.28327847e-01 1.46639273e-02 1.76213067e-02
      1.19200423e-02 1.82096381e-02 2.49590538e-02 3.02634053e-02
      1.07282475e-01 2.95339078e-01 2.95339078e-01 3.87747549e-02
      2.90139727e-02 4.29337882e-02 7.92832300e-02 4.73816954e-02
      2.61386391e-02 2.89147329e-02 2.95339078e-01 2.95339078e-01
      2.95339078e-01 2.09852070e-01 1.18241891e-01 1.46093830e-01
      2.42966801e-01 2.95339078e-01 2.95339078e-01 2.95339078e-01
      5.25960661e-02 2.03449856e-02 6.74174204e-02 1.23261400e-01
      5.84402634e-03 7.69329397e-03 1.41833844e-02 8.97072032e-02
      3.38408917e-01 3.38408917e-01 1.73809789e-02 8.06641486e-03
      1.47698382e-02 5.61104529e-03 6.70081237e-03 8.05444829e-03
      8.58445764e-02 3.38408917e-01 3.38408917e-01 1.75212137e-02
      7.70701421e-03 7.94069842e-03 1.81691330e-02 6.04387857e-02
      2.24547401e-01 3.38408917e-01 3.38408917e-01 4.14889231e-02
      4.54457104e-03 9.25870333e-03 1.43512553e-02 5.71134035e-03
      1.15470933e-02 5.78772128e-02 3.38408917e-01 3.38408917e-01
      5.89425825e-02 7.89208338e-03 8.98158643e-03 3.94057482e-03
      2.34889449e-03 5.44472085e-03 1.73632242e-02 1.24373063e-01
      4.11194772e-01 6.54529706e-02 2.29016319e-02 1.68384071e-02
      4.55836812e-03 6.91332482e-03 7.00823218e-03 1.96847040e-02
      1.74822137e-01 4.11194772e-01 3.68197560e-02 2.22421587e-02
      1.66170187e-02 4.48378082e-03 1.53061599e-01 2.78846119e-02
      4.98408936e-02 1.66402280e-01 4.11194772e-01 1.25823364e-01
      5.50881848e-02 7.50207528e-02 2.38792822e-01 1.16803080e-01
      4.73262370e-02 9.45132896e-02 3.00001740e-01 4.11194772e-01
      3.29831392e-02 1.60749406e-02 2.39977147e-02 1.13232255e-01
      1.94392260e-02 1.11346617e-02 1.21708317e-02 1.01442605e-01
      3.80469531e-01 8.29760507e-02 2.33726930e-02 1.12826144e-02
      1.00613367e-02 1.13504240e-02 7.60001549e-03 5.49194217e-03
      3.68531756e-02 3.80469531e-01 3.80469531e-01 1.34287387e-01
      1.40520008e-02 9.46382247e-03 2.74421927e-02 2.29342133e-02
      4.19979990e-02 1.47681683e-01 3.80469531e-01 7.53561258e-02
      2.43935417e-02 1.83139071e-02 1.69446338e-02 1.10478895e-02
      1.03307888e-02 3.78531427e-03 4.27956274e-03 2.29182467e-01
      3.80469531e-01 3.80469531e-01 6.69656098e-02 1.19130965e-02
      5.74697694e-03 9.79165174e-03 1.10960081e-02 3.17613892e-02
      3.09770495e-01 3.09770495e-01 1.73519030e-01 3.06466110e-02
      1.26413098e-02 1.78105552e-02 2.19535567e-02 2.02387460e-02
      2.11525429e-02 1.20736629e-01 3.09770495e-01 3.09770495e-01
      2.24051356e-01 1.00192472e-01 1.71134975e-02 1.58127658e-02
      7.42331566e-03 5.22178598e-03 1.04628637e-01 3.09770495e-01
      3.09770495e-01 2.27161467e-01 3.15391123e-02 4.53100763e-02
      3.92793901e-02 3.15868184e-02 1.43235158e-02 3.59594971e-02
      1.09855346e-01 3.09770495e-01 3.09770495e-01 1.94867283e-01
      1.91836953e-01 9.54656824e-02 1.65484473e-02 6.87586935e-03
      4.10595872e-02 1.88623503e-01 2.59753078e-01 2.59753078e-01
      2.59753078e-01 2.59753078e-01 2.59753078e-01 2.59753078e-01
      1.82024777e-01 7.21067786e-02 7.68919662e-03 1.56960450e-02
      8.46044719e-02 2.10033149e-01 2.15846658e-01 1.06159605e-01
      3.73840891e-02 1.92704406e-02 2.23884676e-02 4.38108109e-02
      1.34045124e-01 2.59753078e-01 2.59753078e-01 2.59753078e-01
      2.59753078e-01 1.25101402e-01 4.11095098e-02 2.08830871e-02
      1.39220413e-02 2.14945488e-02 8.37256387e-02 2.09326267e-01
      6.52611479e-02 2.00772718e-01 3.19957078e-01 2.97213763e-01
      1.48487970e-01 1.41867045e-02 7.64854951e-03 8.37657135e-03
      1.96345709e-02 7.94827845e-03 1.39597952e-02 2.66825706e-01
      3.19957078e-01 3.19957078e-01 2.33423226e-02 1.28319915e-02
      9.97074600e-03 8.36747698e-03 1.06733844e-01 3.19957078e-01
      3.19957078e-01 8.96735564e-02 2.30228547e-02 1.38522601e-02
      1.42110474e-02 2.15110611e-02 3.41272205e-02 1.44125018e-02
      1.58129901e-01 3.19957078e-01 3.19957078e-01 6.58273771e-02
      1.65561773e-02 1.32546844e-02 9.68512241e-03 1.09094903e-02
      2.99366832e-01 8.64191651e-02 9.33815390e-02 1.50184542e-01
      2.99366832e-01 1.58674002e-01 1.04922168e-01 1.42317593e-01
      2.99366832e-01 2.99366832e-01 1.52436137e-01 2.17279807e-01
      2.99366832e-01 2.99366832e-01 2.79869251e-02 1.23455878e-02
      2.09444799e-02 2.99366832e-01 2.26579368e-01 5.83934635e-02
      4.96989377e-02 4.24248166e-02 4.02750485e-02 2.45882850e-02
      3.11307050e-02 3.35522071e-02 2.80855775e-01 1.45918146e-01
      5.61126135e-02 6.57890290e-02 5.86833991e-02 6.37315586e-02
      8.87965132e-03 1.27285700e-02 7.65886577e-03 1.54486313e-01
      1.40419677e-01 1.24434352e-01 2.04872042e-01 3.80250424e-01
      3.80250424e-01 1.39600769e-01 7.95887634e-02 6.90472126e-02
      9.07629579e-02 4.73139659e-02 2.27995962e-02 1.75664052e-02
      2.05014572e-02 1.27718076e-01 3.80250424e-01 3.80250424e-01
      3.27728420e-01 6.09716214e-02 6.47342056e-02 5.99039532e-02
      9.34954435e-02 9.30060670e-02 1.64470211e-01 5.99094145e-02
      6.32124022e-02 4.62508611e-02 6.49357438e-02 4.61008213e-02
      3.20195965e-02 3.05454824e-02 3.85729037e-02 1.11614645e-01
      9.63411182e-02 2.28855684e-01 1.41397849e-01 7.12300390e-02
      1.49669703e-02 6.32692175e-03 3.04712309e-03 2.67762318e-03
      2.16485728e-02 1.96980506e-01 3.47092330e-01 3.47092330e-01
      9.08049941e-02 7.93000534e-02 1.71643607e-02 1.63890719e-02
      1.16941510e-02 1.38694132e-02 3.41651402e-02 3.29446673e-01
      3.47092330e-01 3.47092330e-01 1.52942901e-02 1.05155250e-02
      7.13582290e-03 4.35134815e-03 3.23302262e-02 1.66546963e-02
      1.34162128e-01 2.56994277e-01 7.93137550e-02 9.44800675e-02
      2.19269171e-02 1.18005499e-02 7.18117272e-03 2.10814141e-02
      5.98513894e-03 8.28423575e-02 3.47092330e-01 3.47092330e-01
      3.21163028e-01 6.14856258e-02 2.37325132e-02 1.40532879e-02
      1.26341833e-02 1.16621796e-02 2.07561906e-02 2.48171106e-01
      3.21163028e-01 3.21163028e-01 3.21163028e-01 5.32390215e-02
      1.19479047e-02 1.30925179e-02 9.02900659e-03 8.56850017e-03
      4.40351404e-02 1.82693556e-01 3.21163028e-01 4.50353734e-02
      9.08408500e-03 6.44361461e-03 9.85904783e-03 2.19841069e-03
      8.69011320e-03 1.64547980e-01 3.21163028e-01 3.21163028e-01
      3.15542102e-01 2.24639680e-02 2.81445612e-03 1.52433859e-02
      7.47199915e-03 6.88274391e-03 1.08766798e-02 1.98383495e-01
      3.55100453e-01 3.55100453e-01 3.55100453e-01 3.36771607e-02
      9.79615655e-03 1.14089977e-02 9.81697440e-03 3.11329905e-02
      4.74383458e-02 5.19807823e-02 3.55100453e-01 3.55100453e-01
      1.85347334e-01 1.67209506e-02 1.47792511e-02 1.28699178e-02
      1.81898922e-02 2.15009749e-02 3.55100453e-01 3.55100453e-01
      1.05200171e-01 1.13843363e-02 2.06211060e-02 1.79107804e-02
      1.11235185e-02 1.20290145e-02 3.35101560e-02 5.13293445e-02
      1.93962082e-01 1.07896090e-01 3.61636095e-02 4.46130410e-02
      1.97260529e-02 1.57771781e-02 2.07447521e-02 3.14775482e-02</_>
    <_>
      1.10906780e-01 6.29297569e-02 9.13043767e-02 1.44471839e-01
      2.06377015e-01 1.15161225e-01 8.49029794e-02 5.63204736e-02
      7.55473748e-02 8.96019191e-02 7.92281553e-02 9.14558098e-02
      1.24590181e-01 1.71496645e-01 5.20628951e-02 8.98354352e-02
      7.72924796e-02 8.62044767e-02 4.03144568e-01 1.44949466e-01
      6.63757995e-02 9.44551378e-02 1.43832803e-01 2.66686063e-02
      9.00842994e-02 9.83752757e-02 3.86722803e-01 4.03144568e-01
      1.46855697e-01 8.73382613e-02 1.19518340e-01 1.43513232e-01
      2.80091763e-02 8.45155045e-02 6.40989691e-02 4.03144568e-01
      7.84274563e-02 5.19270077e-02 4.52688783e-02 5.78395799e-02
      1.26049921e-01 1.81108546e-02 5.88251539e-02 6.12255819e-02
      9.09289643e-02 2.12320253e-01 5.43085076e-02 4.89145555e-02
      5.25417663e-02 1.22065857e-01 3.38888727e-02 6.66521490e-02
      7.70316571e-02 1.74061850e-01 4.45157856e-01 7.96603784e-02
      4.22951430e-02 5.90544753e-02 7.66030475e-02 4.15378548e-02
      5.12986369e-02 3.55451331e-02 4.45157856e-01 4.45157856e-01
      3.22294086e-02 3.10859885e-02 2.83624772e-02 9.32718441e-02
      4.91405204e-02 8.13552439e-02 5.82878813e-02 4.45157856e-01
      2.27058277e-01 4.35135365e-02 5.01980335e-02 5.27699217e-02
      9.29145291e-02 3.75170633e-02 5.44159412e-02 6.26298636e-02
      2.17748106e-01 2.62290001e-01 3.88676301e-02 6.87421039e-02
      6.11432903e-02 1.12978332e-01 6.40018508e-02 6.43504485e-02
      6.56330213e-02 2.28375018e-01 3.52416366e-01 4.46727984e-02
      5.65173849e-02 2.73419041e-02 1.21073768e-01 8.03507045e-02
      8.47327635e-02 1.23803005e-01 3.52416366e-01 3.52416366e-01
      1.00965597e-01 7.56919309e-02 5.60744368e-02 1.65403143e-01
      2.15661496e-01 1.59436762e-01 2.29015142e-01 3.52416366e-01
      2.71195352e-01 1.02616228e-01 6.78026751e-02 6.68385178e-02
      1.36722058e-01 4.67055663e-02 9.60126817e-02 1.07400671e-01
      2.55705386e-01 1.62266657e-01 1.33027390e-01 7.98760355e-02
      6.33336231e-02 1.51326120e-01 2.02061348e-02 1.04647912e-01
      8.78666416e-02 1.60415977e-01 1.12454548e-01 1.46809280e-01
      9.13795903e-02 9.75300521e-02 1.47938997e-01 1.89082369e-01
      1.93064228e-01 1.90816998e-01 1.36788607e-01 2.73635298e-01
      2.73635298e-01 2.73635298e-01 2.73635298e-01 2.73635298e-01
      1.18920095e-01 6.76842332e-02 7.00265095e-02 2.73635298e-01
      4.88662384e-02 2.71984506e-02 2.89240684e-02 2.17065532e-02
      7.28008300e-02 3.97198610e-02 4.24620211e-02 3.29355039e-02
      4.43614870e-02 6.11572452e-02 5.42024001e-02 4.64558005e-02
      7.24194944e-02 6.27338588e-02 9.18183923e-02 4.72098812e-02
      6.68117777e-02 5.23287021e-02 3.98767799e-01 2.30009884e-01
      1.27378404e-01 1.44456640e-01 1.70907393e-01 5.54177873e-02
      5.34809157e-02 5.41317463e-02 3.98767799e-01 3.98767799e-01
      9.66811553e-02 9.79600176e-02 8.52603167e-02 6.74749911e-02
      1.89100832e-01 2.34108120e-01 2.41881803e-01 3.98767799e-01
      3.36405128e-01 1.21818997e-01 5.49442172e-02 7.10533485e-02
      4.31117080e-02 4.13178094e-03 5.84076671e-03 5.97231928e-03
      1.69050321e-01 3.36405128e-01 2.51798686e-02 6.06738310e-03
      6.72098575e-03 5.66191366e-03 2.20386381e-03 4.38102987e-03
      2.90252850e-03 3.36405128e-01 3.36405128e-01 1.64372876e-01
      1.05106011e-01 2.47593358e-01 3.36405128e-01 2.95275729e-02
      4.48292494e-03 5.21619385e-03 1.67110100e-01 3.36405128e-01
      1.23140730e-01 6.82706907e-02 3.99722420e-02 2.20153444e-02
      9.14340559e-03 3.65508348e-03 5.62015269e-03 3.36405128e-01
      3.54199857e-01 1.15100536e-02 4.02416429e-03 3.18104867e-03
      3.32502672e-03 2.87408265e-03 3.75232310e-03 4.10522241e-03
      3.10507476e-01 3.54199857e-01 4.62859077e-03 4.56986856e-03
      1.02998700e-03 6.81458460e-03 5.55154495e-03 7.23638665e-03
      8.83856509e-03 3.54199857e-01 3.54199857e-01 6.99719712e-02
      2.96192132e-02 1.12450263e-02 2.42941524e-03 5.83381671e-03
      1.21667646e-02 3.61028686e-02 3.54199857e-01 3.54199857e-01
      1.18461438e-02 1.06993588e-02 4.72854683e-03 1.92120094e-02
      4.93040681e-02 5.30963317e-02 8.99758339e-02 3.54199857e-01
      3.35840225e-01 4.76136990e-03 5.87324053e-03 1.88224912e-02
      1.26542151e-01 7.05110803e-02 2.29900666e-02 6.90564364e-02
      3.35840225e-01 2.02301905e-01 1.26451263e-02 8.01444985e-03
      6.07208312e-02 2.87984818e-01 1.40234098e-01 4.91149016e-02
      1.04098953e-01 1.90501422e-01 3.35840225e-01 2.02587340e-03
      1.14556728e-02 7.23366663e-02 3.35840225e-01 1.49813861e-01
      5.22208847e-02 8.26948434e-02 2.87826538e-01 1.01106875e-01
      4.47105384e-03 1.31699927e-02 1.64902002e-01 3.35840225e-01
      1.82995141e-01 3.63169499e-02 6.77039996e-02 1.08671173e-01
      3.51704434e-02 3.07320878e-02 2.18695495e-02 7.12518916e-02
      1.99684203e-01 1.11900747e-01 6.11491799e-02 6.08322136e-02
      5.46345897e-02 2.61067569e-01 1.90137401e-01 1.22373335e-01
      2.10382536e-01 3.32614094e-01 3.50129426e-01 8.49383697e-02
      1.36399362e-02 1.63612574e-01 4.80831042e-02 2.08513588e-02
      3.62720303e-02 1.29179999e-01 3.50129426e-01 1.12995237e-01
      4.00089398e-02 4.01179865e-02 6.44005537e-02 1.11890517e-01
      1.02525905e-01 7.22677037e-02 1.56972498e-01 3.50129426e-01
      3.50129426e-01 1.52972654e-01 3.26670036e-02 9.48635563e-02
      2.73606628e-01 9.11756083e-02 3.96752134e-02 7.29950070e-02
      1.21158339e-01 2.37421051e-01 4.42039706e-02 2.05134097e-02
      3.08666170e-01 2.14809716e-01 2.33117770e-02 1.03176236e-02
      1.59758795e-02 1.08214468e-01 3.08666170e-01 1.22402154e-01
      9.96627361e-02 3.08666170e-01 9.47262123e-02 4.45303507e-02
      2.51851231e-02 6.41745925e-02 3.08666170e-01 3.08666170e-01
      6.98024705e-02 1.66221727e-02 1.26168385e-01 7.40834922e-02
      1.04340166e-02 1.34752328e-02 2.43701711e-02 3.08666170e-01
      3.08666170e-01 8.61326754e-02 5.14753349e-02 1.72053576e-01
      6.40833974e-02 5.22849336e-02 6.00457005e-02 1.97378859e-01
      3.88248771e-01 4.18974012e-02 5.81287080e-03 5.92621695e-03
      2.31528841e-02 3.82066846e-01 1.90931380e-01 1.72659859e-01
      1.66878656e-01 2.40381464e-01 1.15630962e-02 3.86963459e-03
      6.60700304e-03 1.55869886e-01 1.83720607e-02 1.46757178e-02
      2.71321330e-02 1.89568326e-01 3.88248771e-01 4.68001068e-02
      1.19304769e-02 4.47372906e-03 8.20896402e-03 1.79916441e-01
      8.58702660e-02 1.16919570e-01 2.68568873e-01 3.88248771e-01
      3.00030038e-02 9.81395133e-03 4.54200339e-03 5.98254614e-02
      3.09729308e-01 1.03782862e-01 7.01758265e-02 5.48145846e-02
      1.16129577e-01 3.35491598e-02 1.90205835e-02 5.61533757e-02
      2.98843414e-01 3.09729308e-01 6.12361915e-03 5.99077949e-03
      2.33305711e-02 3.05386692e-01 1.81042597e-01 8.67926404e-02
      1.47035986e-01 2.45020986e-01 2.97388732e-01 4.95489128e-02
      5.23553230e-02 9.81306732e-02 3.09729308e-01 7.98275471e-02
      1.38693536e-02 2.93496232e-02 1.48082972e-01 1.44538030e-01
      5.80125535e-03 2.07670056e-03 5.47653213e-02 3.09729308e-01
      3.09729308e-01 4.13285494e-02 6.61102459e-02 1.12424187e-01
      3.22763883e-02 1.05441955e-03 8.40698183e-03 6.71336576e-02
      3.51103544e-01 2.02152476e-01 5.01698889e-02 4.97354306e-02
      4.73619439e-02 7.95784686e-03 4.82997019e-03 1.21980235e-02
      9.84051526e-02 3.51103544e-01 2.13512227e-01 1.94228031e-02
      4.23592422e-03 8.20864271e-03 1.79002229e-02 5.26068639e-03
      2.72142142e-03 6.03099130e-02 3.51103544e-01 3.51103544e-01
      9.30431709e-02 2.83410624e-02 1.77907515e-02 1.50372880e-02
      1.08902641e-02 9.96828359e-03 4.99967448e-02 3.51103544e-01
      3.51103544e-01 3.51103544e-01 7.81747401e-02 3.25982049e-02
      3.24516818e-02 2.39187405e-02 2.97995489e-02 5.12065515e-02
      2.88388580e-01 1.15246475e-01 2.80069821e-02 1.10443989e-02
      2.90527232e-02 2.88428683e-02 4.54368144e-02 5.18583879e-02
      1.55275360e-01 2.88388580e-01 2.88388580e-01 4.66893464e-02
      2.42996588e-02 3.01958006e-02 1.49304911e-01 8.67064893e-02
      4.65840064e-02 3.72009426e-02 2.43120298e-01 2.88388580e-01
      2.88388580e-01 1.49087504e-01 1.60060570e-01 2.02513814e-01
      2.88388580e-01 2.88388580e-01 2.88388580e-01 2.88388580e-01
      4.28446159e-02 3.49667445e-02 3.82163823e-02 9.59804207e-02
      8.84483289e-03 1.12126200e-02 2.47343536e-02 1.39464661e-01
      3.30862343e-01 3.30862343e-01 1.93605088e-02 5.86002227e-03
      6.33649575e-03 9.61587206e-03 5.12569956e-03 2.02870835e-02
      1.15190491e-01 3.30862343e-01 3.30862343e-01 8.86384025e-03
      4.33850195e-03 6.80596987e-03 2.04482898e-02 7.92595446e-02
      2.61194170e-01 3.30862343e-01 3.30862343e-01 3.87510173e-02
      7.49303354e-03 1.16856089e-02 8.41583870e-03 5.82397217e-03
      1.57313962e-02 7.64570385e-02 3.30862343e-01 3.30862343e-01
      5.69612123e-02 5.40526630e-03 8.14426783e-03 1.10307392e-02
      1.12838857e-02 2.22241436e-03 2.87477113e-03 1.16964117e-01
      4.36346203e-01 4.44867127e-02 7.64381606e-03 5.00053167e-03
      9.22008604e-03 1.20485751e-02 6.11936534e-03 9.09846090e-03
      1.51958078e-01 4.36346203e-01 2.80745048e-02 8.05668347e-03
      5.03743300e-03 5.44064166e-03 1.36244655e-01 2.19347402e-02
      3.95813845e-02 1.45575747e-01 4.36346203e-01 8.70990232e-02
      4.74090762e-02 2.85114702e-02 2.06072703e-01 8.50085840e-02
      3.83104794e-02 7.16471598e-02 2.78466970e-01 4.36346203e-01
      1.72515642e-02 5.57127921e-03 7.21415738e-03 8.45489204e-02
      2.13222764e-02 1.14227450e-02 1.27365589e-02 8.03532377e-02
      3.80002677e-01 1.38751104e-01 1.45725235e-02 6.32215757e-03
      1.00741684e-02 1.95753817e-02 7.67695624e-03 3.00129247e-03
      4.50633466e-02 3.80002677e-01 3.80002677e-01 1.26615867e-01
      1.22228144e-02 1.32544925e-02 1.73709225e-02 2.46294625e-02
      2.98420675e-02 1.27854392e-01 3.80002677e-01 9.91937593e-02
      2.77346112e-02 1.51893822e-02 9.37186554e-03 1.41950892e-02
      1.50382891e-02 8.57426878e-03 1.83858778e-02 2.13971972e-01
      3.80002677e-01 3.80002677e-01 9.04700458e-02 1.62006840e-02
      2.83574425e-02 1.34169282e-02 6.56927703e-03 3.65294330e-02
      2.96199381e-01 2.96199381e-01 1.98841542e-01 2.97314022e-02
      1.53727178e-02 4.96229343e-02 2.34819185e-02 1.63367707e-02
      2.56925933e-02 1.07002497e-01 2.96199381e-01 2.96199381e-01
      2.56749183e-01 1.46989733e-01 3.09079215e-02 1.39510427e-02
      8.10970832e-03 1.00571858e-02 8.89815912e-02 2.96199381e-01
      2.96199381e-01 2.57644951e-01 4.67085876e-02 6.29420802e-02
      2.85726245e-02 1.67454481e-02 1.94035694e-02 2.30932031e-02
      7.94508979e-02 2.96199381e-01 2.96199381e-01 2.43214846e-01
      2.62912780e-01 1.04748815e-01 2.47222651e-02 1.56352837e-02
      2.75911391e-02 1.26786560e-01 2.62912780e-01 2.62912780e-01
      2.62912780e-01 2.62912780e-01 2.62912780e-01 2.62912780e-01
      2.09604636e-01 4.20564562e-02 4.34023328e-03 1.97541621e-02
      3.51464413e-02 1.88267693e-01 2.61584222e-01 8.97112638e-02
      1.48388306e-02 2.48151571e-02 1.67467166e-02 2.51269862e-02
      1.27670869e-01 2.10383341e-01 2.62912780e-01 2.62912780e-01
      2.62912780e-01 1.37772024e-01 6.78726509e-02 2.78232563e-02
      7.16444897e-03 3.01859006e-02 3.87251414e-02 1.70522854e-01
      6.21152557e-02 1.79223001e-01 3.13402057e-01 3.13402057e-01
      8.15864205e-02 1.10301245e-02 1.15367919e-02 1.09337112e-02
      1.66340284e-02 5.18094376e-03 1.83438491e-02 3.13402057e-01
      3.13402057e-01 2.89962292e-01 1.80425178e-02 8.76845885e-03
      7.29960250e-03 1.55932186e-02 1.11835130e-01 3.13402057e-01
      3.13402057e-01 1.07118234e-01 2.11845841e-02 4.80712764e-03
      1.61605105e-02 1.59513038e-02 3.11608519e-02 2.29971260e-02
      2.29814574e-01 3.13402057e-01 3.13402057e-01 5.23099639e-02
      5.25590777e-03 1.26145417e-02 8.61881953e-03 1.98459513e-02
      3.00657958e-01 8.06972831e-02 1.00658670e-01 1.59665301e-01
      3.00657958e-01 1.10402077e-01 1.12352163e-01 8.11401457e-02
      3.00657958e-01 3.00657958e-01 1.36707574e-01 1.94005743e-01
      3.00657958e-01 3.00657958e-01 1.23420637e-02 9.53897927e-03
      1.54791027e-02 2.94003695e-01 2.62225211e-01 4.26333360e-02
      3.86376232e-02 3.68922725e-02 5.98334931e-02 3.38434577e-02
      3.45843583e-02 3.98337878e-02 3.00657958e-01 1.70150101e-01
      6.23971485e-02 5.67779392e-02 7.47850314e-02 6.95435926e-02
      1.04738912e-02 1.77559294e-02 2.16422696e-02 1.38260230e-01
      1.11891940e-01 1.26198426e-01 1.56522661e-01 3.79134089e-01
      3.79134089e-01 6.55853823e-02 6.28329739e-02 8.61825123e-02
      6.65400326e-02 4.10212316e-02 8.84054378e-02 5.07867150e-02
      7.09624812e-02 1.46442533e-01 3.79134089e-01 3.79134089e-01
      3.79134089e-01 6.21996708e-02 7.99755752e-02 7.81568736e-02
      8.13619941e-02 1.11497633e-01 1.69575930e-01 1.81339588e-02
      3.73034813e-02 6.61215037e-02 6.75159618e-02 3.99859846e-02
      1.00794941e-01 6.80689290e-02 5.79842441e-02 1.19496964e-01
      4.07841280e-02 1.46582380e-01 1.77676365e-01 4.80302162e-02
      1.23255840e-02 1.47174923e-02 8.55119992e-03 1.02792894e-02
      2.42668986e-02 1.83828622e-01 3.46699476e-01 3.46699476e-01
      1.33642912e-01 1.52923360e-01 1.95422824e-02 6.27978845e-03
      1.08835110e-02 1.72753185e-02 3.13936286e-02 2.57856339e-01
      3.46699476e-01 3.46699476e-01 1.11298654e-02 2.63109747e-02
      1.45370560e-02 1.32482853e-02 2.20223479e-02 1.28625222e-02
      1.00756846e-01 2.73302644e-01 1.01698637e-01 1.72476530e-01
      1.74181107e-02 9.98508837e-03 1.03634000e-02 2.12082528e-02
      5.44013223e-03 5.53502105e-02 3.46699476e-01 3.46699476e-01
      3.36983532e-01 5.97282723e-02 7.33455643e-03 1.59712043e-02
      1.33293327e-02 1.00471284e-02 2.94840895e-02 1.54579625e-01
      3.36983532e-01 3.36983532e-01 3.36983532e-01 5.76687604e-02
      2.34079976e-02 2.06446387e-02 5.78706991e-03 1.77328326e-02
      1.45987375e-02 1.59757957e-01 3.36983532e-01 3.83992828e-02
      6.19805278e-03 3.57047259e-03 9.77154728e-03 4.48550424e-03
      6.49912003e-03 9.61657017e-02 3.36983532e-01 3.36983532e-01
      3.27746063e-01 1.96204744e-02 1.15982490e-03 1.02524674e-02
      2.07059784e-03 6.75500045e-03 2.94694817e-03 1.53381884e-01
      3.69594902e-01 3.69594902e-01 3.69594902e-01 5.73314093e-02
      2.08175369e-02 6.22257683e-03 1.28339035e-02 1.36709157e-02
      5.05864546e-02 6.53936341e-02 3.69594902e-01 3.69594902e-01
      1.75416499e-01 2.19514556e-02 1.07526165e-02 1.18787466e-02
      1.27581749e-02 2.68389042e-02 2.88973063e-01 3.69594902e-01
      6.88502789e-02 1.66455898e-02 2.85654329e-02 6.34799106e-03
      9.40299314e-03 6.85401214e-03 3.51185352e-02 5.13824001e-02
      1.64914608e-01 8.06997940e-02 4.80934158e-02 4.19393256e-02
      3.03316470e-02 1.76110920e-02 2.52361000e-02 1.81771331e-02</_>
    <_>
      1.48203090e-01 2.61047129e-02 3.44085321e-02 1.49003472e-02
      3.70610096e-02 1.48303518e-02 2.83078924e-02 4.74380851e-02
      1.09515928e-01 1.16314828e-01 2.44928114e-02 4.44827527e-02
      1.85310394e-02 2.36972719e-02 2.19985358e-02 4.40732315e-02
      5.45496456e-02 1.16136238e-01 3.23332399e-01 1.20898902e-01
      2.89905131e-01 3.23332399e-01 1.34281486e-01 3.73033173e-02
      7.33949617e-02 8.47770348e-02 3.23332399e-01 3.23332399e-01
      3.83669846e-02 7.00510293e-02 3.23332399e-01 2.33024329e-01
      1.76435798e-01 1.96848974e-01 1.78033978e-01 3.23332399e-01
      1.24648832e-01 8.32327828e-02 8.13397169e-02 6.31208122e-02
      7.18886629e-02 3.76439355e-02 7.47075751e-02 8.57847184e-02
      1.14351004e-01 1.50731295e-01 8.85526463e-02 1.09342411e-01
      9.91890803e-02 1.44127071e-01 5.27614057e-02 8.85085687e-02
      1.09192893e-01 1.36736348e-01 2.64004290e-01 9.18218493e-02
      7.69426599e-02 2.64004290e-01 2.64004290e-01 2.61837304e-01
      1.86828047e-01 1.75712615e-01 2.64004290e-01 2.64004290e-01
      2.35539496e-01 2.01116189e-01 2.52494603e-01 2.64004290e-01
      6.04400821e-02 8.18946585e-02 1.03495970e-01 2.64004290e-01
      1.36867657e-01 6.34781197e-02 1.12801880e-01 7.75628313e-02
      1.27416596e-01 7.15794638e-02 1.06299438e-01 7.67037719e-02
      1.24793656e-01 1.16000079e-01 5.23534901e-02 8.63229409e-02
      2.59429049e-02 1.22078806e-01 9.60019827e-02 1.17977664e-01
      6.00618385e-02 1.01714835e-01 3.11017126e-01 1.91781789e-01
      1.77146405e-01 1.66306347e-01 1.65505245e-01 1.50416195e-01
      1.49363577e-01 1.53962046e-01 3.11017126e-01 3.11017126e-01
      9.08284485e-02 7.30102286e-02 2.39088275e-02 1.38444901e-01
      2.98070014e-01 2.80709445e-01 2.12656111e-01 3.11017126e-01
      6.30806088e-02 5.80801815e-02 3.85785587e-02 8.50838423e-03
      1.10648990e-01 7.48493075e-02 1.29459456e-01 5.44582792e-02
      6.08656146e-02 1.83682114e-01 7.28872418e-02 1.34465605e-01
      5.28866164e-02 1.99849710e-01 8.05596933e-02 1.71505794e-01
      9.34530348e-02 1.30102783e-01 1.51825398e-01 9.16800350e-02
      7.05746189e-02 3.46567184e-02 1.59444243e-01 1.82964891e-01
      2.28797063e-01 1.24810778e-01 2.04267114e-01 3.09364855e-01
      1.20669521e-01 3.09364855e-01 1.62873834e-01 3.09364855e-01
      3.09364855e-01 3.09364855e-01 1.04178481e-01 2.20506757e-01
      1.93534538e-01 2.74686497e-02 6.27302453e-02 1.65700503e-02
      5.63719682e-02 2.71139015e-02 3.10640484e-02 1.94022749e-02
      1.65694147e-01 2.70043939e-01 2.66151410e-02 3.95773388e-02
      1.85494293e-02 3.60243320e-02 4.22072187e-02 5.46158813e-02
      7.94328600e-02 2.81092286e-01 2.81092286e-01 2.78844852e-02
      1.44836426e-01 6.42867014e-02 2.42962554e-01 2.81092286e-01
      2.03620300e-01 3.22626792e-02 2.81092286e-01 2.81092286e-01
      3.08362320e-02 6.19020201e-02 6.33042902e-02 1.68301299e-01
      2.81092286e-01 2.53795177e-01 2.28275701e-01 2.81092286e-01
      1.77245960e-01 3.41618508e-02 1.42553657e-01 3.18423361e-01
      2.60159582e-01 4.13075946e-02 3.04233693e-02 3.51548232e-02
      1.67415231e-01 1.33617595e-01 1.10319210e-02 3.02712470e-02
      3.18423361e-01 3.08360130e-01 7.54693523e-02 7.04598203e-02
      5.26066273e-02 1.77179396e-01 1.83032919e-02 7.57793942e-03
      4.13316153e-02 3.18423361e-01 3.18423361e-01 1.41140014e-01
      1.87694617e-02 2.30164416e-02 2.24696994e-02 2.28855032e-02
      9.34817642e-03 1.38251465e-02 3.18423361e-01 3.18423361e-01
      2.23526999e-01 4.68641222e-02 1.88680496e-02 2.11995859e-02
      7.04885125e-02 1.62893459e-02 2.47304365e-02 3.41965765e-01
      2.75283903e-01 7.72541165e-02 4.66316156e-02 4.33575213e-02
      8.61026421e-02 2.03732193e-01 1.15731582e-01 1.37838453e-01
      2.43344575e-01 3.41965765e-01 6.39745742e-02 1.91471688e-02
      3.03353909e-02 1.55295163e-01 4.08788510e-02 3.64707336e-02
      3.10628470e-02 2.49049902e-01 3.41965765e-01 1.30182534e-01
      5.34187146e-02 3.25904340e-02 4.18141037e-02 8.54541808e-02
      7.59298056e-02 1.46492094e-01 3.41965765e-01 3.41965765e-01
      1.38463438e-01 2.74740737e-02 3.50021049e-02 7.69495293e-02
      2.80067742e-01 7.66121000e-02 8.39731172e-02 1.25115961e-01
      2.52231985e-01 7.15312809e-02 3.90560813e-02 3.60736400e-02
      3.01210105e-01 1.95805088e-01 2.45305989e-02 1.77949443e-02
      2.60353852e-02 2.75243551e-01 1.87863544e-01 1.14349432e-01
      7.34794736e-02 3.01210105e-01 1.11227006e-01 3.87770347e-02
      7.29460418e-02 3.01210105e-01 3.01210105e-01 1.46991551e-01
      3.60292532e-02 2.93903332e-02 1.43595204e-01 7.58365244e-02
      1.43387197e-02 2.02750526e-02 8.29814821e-02 3.01210105e-01
      3.01210105e-01 7.94470757e-02 4.03498970e-02 1.40737861e-01
      9.45246071e-02 4.66917343e-02 2.82951407e-02 4.95532453e-02
      3.39500308e-01 2.28248611e-01 1.55837700e-01 7.89505914e-02
      1.63461119e-01 7.63084814e-02 4.33817096e-02 7.48698264e-02
      5.98503947e-02 2.88373053e-01 3.39500308e-01 2.25176215e-01
      4.03197035e-02 6.92230538e-02 5.94758615e-02 5.40887192e-02
      4.04740758e-02 8.88183489e-02 3.39500308e-01 3.39500308e-01
      9.64151695e-02 5.43180332e-02 8.80293250e-02 7.88726732e-02
      6.40630871e-02 6.08690940e-02 9.29195136e-02 3.39500308e-01
      2.53808498e-01 8.20299163e-02 5.82316443e-02 7.89772868e-02
      6.98288828e-02 1.14503996e-02 4.06030938e-02 4.03755419e-02
      3.22457641e-01 3.22457641e-01 1.38067022e-01 1.64755695e-02
      8.05037171e-02 1.01367660e-01 2.50423234e-02 2.55130325e-02
      9.48208943e-02 3.22457641e-01 3.22457641e-01 1.44784451e-01
      6.47709072e-02 1.57700032e-01 1.84808355e-02 1.21504785e-02
      2.10764371e-02 1.40899196e-01 3.22457641e-01 3.22457641e-01
      3.15575711e-02 1.19152814e-02 1.70947183e-02 2.04700418e-02
      1.37883723e-02 2.37820633e-02 1.80616885e-01 3.22457641e-01
      3.22457641e-01 5.64164370e-02 2.28869841e-02 2.35430971e-02
      1.77952927e-02 1.47544872e-02 2.38573253e-02 9.55311656e-02
      2.90063679e-01 2.90063679e-01 7.15556070e-02 1.65149998e-02
      1.71180274e-02 3.84467468e-02 1.78061221e-02 1.17607266e-02
      5.40927425e-02 2.90063679e-01 2.90063679e-01 2.74479181e-01
      1.12731785e-01 9.06403139e-02 2.02671569e-02 2.74716467e-02
      3.89186926e-02 3.45565714e-02 2.79680997e-01 2.90063679e-01
      2.90063679e-01 3.40948664e-02 2.50023436e-02 8.02606493e-02
      3.94151248e-02 2.72275340e-02 1.10949222e-02 1.16777107e-01
      2.32636616e-01 2.90063679e-01 2.78100222e-01 2.30792627e-01
      1.25135407e-01 9.58153754e-02 7.58482367e-02 6.32909089e-02
      1.54730245e-01 1.35651499e-01 1.42861754e-01 1.13009468e-01
      1.33449152e-01 1.14676677e-01 1.65341765e-01 2.67835051e-01
      2.67835051e-01 2.67835051e-01 4.20455262e-02 1.49828279e-02
      2.50567514e-02 4.13803011e-02 2.67835051e-01 1.54782563e-01
      9.73555148e-02 3.76593769e-02 4.29477617e-02 7.77464584e-02
      1.81235656e-01 2.67835051e-01 2.67835051e-01 2.67835051e-01
      2.67835051e-01 2.67835051e-01 2.67835051e-01 8.96489248e-02
      3.56849618e-02 3.05488650e-02 5.49768507e-02 1.35500968e-01
      3.19037251e-02 6.26658574e-02 1.56355187e-01 2.92903870e-01
      2.92903870e-01 9.89389941e-02 2.35955622e-02 4.04272825e-02
      2.89062914e-02 1.73887536e-02 1.35033699e-02 1.69764403e-02
      9.17745605e-02 2.92903870e-01 2.92903870e-01 1.74830884e-01
      5.84841855e-02 2.55130138e-02 7.09050596e-02 1.25266314e-01
      2.92903870e-01 2.87818164e-01 1.70670182e-01 1.88059673e-01
      1.09331019e-01 8.89923275e-02 7.76007995e-02 3.47244628e-02
      2.36741435e-02 9.87014994e-02 8.82459134e-02 1.75073296e-01
      2.92903870e-01 2.92903870e-01 2.40697056e-01 9.30327103e-02
      1.76410265e-02 1.98903922e-02 2.83349771e-02 4.27769534e-02
      2.73877203e-01 2.77449578e-01 2.22310349e-01 7.54437894e-02
      2.80127637e-02 5.24379276e-02 7.73161426e-02 1.11146577e-01
      1.28311723e-01 1.13842204e-01 3.80265489e-02 6.54254258e-02
      6.00741319e-02 4.06619944e-02 1.06688932e-01 4.69169170e-02
      1.87858120e-02 2.88493000e-02 7.57000819e-02 2.77449578e-01
      2.77449578e-01 2.77449578e-01 2.77449578e-01 2.77449578e-01
      2.77449578e-01 2.50760913e-01 1.26047835e-01 4.40859497e-02
      2.24750601e-02 1.18967280e-01 2.64178425e-01 2.77449578e-01
      2.52016280e-02 5.67517355e-02 1.77288413e-01 2.97677308e-01
      2.97677308e-01 8.23651329e-02 1.47646312e-02 1.26814628e-02
      1.31589053e-02 1.32759791e-02 1.56458002e-02 1.02634490e-01
      2.97677308e-01 2.97677308e-01 1.39611438e-01 2.10293029e-02
      2.20474619e-02 1.52736260e-02 1.80256724e-01 2.97677308e-01
      2.97677308e-01 2.97677308e-01 9.50313061e-02 2.09582224e-02
      2.25774385e-02 2.62459423e-02 7.28413016e-02 2.31079385e-02
      5.88338971e-02 2.97677308e-01 2.97677308e-01 2.60702699e-01
      4.84931581e-02 2.63679251e-02 2.95505952e-02 3.06593161e-02
      1.34795466e-02 1.27009703e-02 2.08950546e-02 1.38707366e-02
      6.66050166e-02 2.94864506e-01 2.94864506e-01 2.28257924e-01
      4.90371101e-02 1.15422904e-01 3.51598188e-02 2.40490083e-02
      1.12069324e-02 4.38463762e-02 9.74463299e-02 2.94864506e-01
      2.94864506e-01 2.27554813e-01 2.57147420e-02 1.11316983e-02
      9.73016210e-03 9.21629742e-03 2.69042477e-02 9.53419209e-02
      2.94864506e-01 2.94864506e-01 1.10010557e-01 2.94864506e-01
      3.00103240e-02 1.05543192e-02 1.59190707e-02 2.54592840e-02
      4.54264320e-02 2.22065270e-01 2.94864506e-01 2.94864506e-01
      2.90529609e-01 1.62678599e-01 3.75676379e-02 2.41339076e-02
      3.39311697e-02 3.03853322e-02 5.37474230e-02 1.46487951e-01
      2.58059770e-01 2.32212648e-01 2.98202157e-01 2.98202157e-01
      1.52360126e-01 3.78678478e-02 2.86471322e-02 2.89587956e-02
      3.66082266e-02 9.40887406e-02 2.98202157e-01 2.64833540e-01
      2.17765048e-02 1.46615291e-02 2.60348972e-02 2.14872472e-02
      2.72069722e-02 1.19496860e-01 2.98202157e-01 2.98202157e-01
      2.98202157e-01 2.46593401e-01 5.14075980e-02 2.32679807e-02
      1.02010351e-02 1.84236765e-02 1.73102263e-02 1.24287173e-01
      4.06044424e-02 2.00910166e-01 2.84905165e-01 2.16021687e-01
      9.73126665e-02 2.38474056e-01 2.47673690e-01 6.01311214e-02
      3.44440788e-02 2.45581809e-02 1.47728520e-02 1.23612717e-01
      7.84873739e-02 1.13093212e-01 2.84905165e-01 2.84905165e-01
      2.46057525e-01 5.73725626e-02 6.01625107e-02 2.84905165e-01
      2.58325845e-01 7.71988034e-02 4.90626097e-02 1.07555605e-01
      1.96188897e-01 3.98028418e-02 2.50824783e-02 3.92259099e-02
      2.92181950e-02 5.87498620e-02 4.69992012e-02 5.89556247e-02
      1.98248774e-01 2.84905165e-01 2.84905165e-01 9.08586308e-02
      9.98040140e-02 3.83202359e-02 1.68827567e-02 2.17669215e-02
      5.34672961e-02 1.06324092e-01 2.67644048e-01 2.83226639e-01
      2.26562902e-01 2.83226639e-01 2.83226639e-01 1.10322133e-01
      5.42979948e-02 4.09290865e-02 9.37528349e-03 4.15774658e-02
      1.53545380e-01 2.83226639e-01 1.28311709e-01 3.50313038e-02
      2.76578758e-02 2.73891594e-02 3.55641581e-02 6.00748211e-02
      2.75970906e-01 2.83226639e-01 2.83226639e-01 2.83226639e-01
      1.78176060e-01 5.12301140e-02 3.53590697e-02 4.08764742e-02
      1.01231923e-02 2.30475720e-02 1.60505682e-01 2.83226639e-01
      1.67732507e-01 3.23595732e-01 2.70259291e-01 7.01899007e-02
      4.48905714e-02 1.47371488e-02 1.49271954e-02 2.58786641e-02
      7.11036325e-02 2.83317789e-02 1.66693196e-01 3.23595732e-01
      3.23595732e-01 7.94712976e-02 3.27795967e-02 1.63141228e-02
      2.68563386e-02 2.54539680e-02 3.23595732e-01 3.23595732e-01
      2.14266732e-01 3.17142904e-02 4.16869707e-02 7.07181264e-03
      7.97710288e-03 2.21243575e-02 1.00100167e-01 1.29951373e-01
      3.23595732e-01 3.23595732e-01 1.78735510e-01 4.28176783e-02
      1.84459165e-02 1.45806391e-02 2.90623307e-02 2.30064224e-02
      1.02503449e-01 5.03096916e-02 9.44298729e-02 5.90828285e-02
      1.21508084e-01 7.30700716e-02 2.52844661e-01 3.62276644e-01
      2.41849318e-01 3.62276644e-01 1.02210291e-01 1.17800020e-01
      1.02321446e-01 1.09268956e-01 3.92447971e-02 2.20934927e-01
      3.62276644e-01 3.62276644e-01 6.70585856e-02 8.53916854e-02
      1.83514506e-01 7.71156475e-02 1.79936230e-01 2.26635654e-02
      4.32360806e-02 6.78879619e-02 7.64475763e-02 9.06534567e-02
      1.07493587e-01 1.88283309e-01 8.37899819e-02 1.64908603e-01
      7.15617044e-03 9.35995057e-02 5.31010889e-02 9.30047706e-02
      3.58530372e-01 3.16229641e-01 9.30121019e-02 7.98892230e-02
      8.91660005e-02 1.57778878e-02 8.91987458e-02 1.48522109e-01
      3.58530372e-01 3.58530372e-01 3.58530372e-01 1.27499565e-01
      7.32437447e-02 1.07299477e-01 3.39933001e-02 1.08902432e-01
      7.44372085e-02 3.12405974e-01 8.14264119e-02 8.39081332e-02
      8.08914080e-02 6.40601516e-02 1.54841423e-01 2.35007685e-02
      8.57913271e-02 4.06123661e-02 1.10022336e-01 1.27121374e-01
      8.94454643e-02 6.24924116e-02 6.45031482e-02 1.65204853e-01
      4.54807244e-02 1.14901245e-01 8.03362280e-02 1.68820620e-01
      1.62262470e-01 3.51936072e-01 1.59377351e-01 6.57830387e-02
      1.17333040e-01 9.88156348e-02 1.88416302e-01 8.70233625e-02
      1.07367851e-01 1.77717328e-01 1.89501837e-01 1.66964605e-01
      1.66581318e-01 1.33028150e-01 1.35893196e-01 3.51936072e-01
      3.51936072e-01 3.27513546e-01 1.22734912e-01 1.14331231e-01
      1.06375881e-01 4.73700799e-02 1.26282349e-01 4.79111932e-02
      1.05332829e-01 7.00410679e-02 1.20814011e-01 1.12410635e-01
      1.75252825e-01 1.39693066e-01 8.58420432e-02 1.65226892e-01
      8.37451890e-02 1.13072708e-01 9.39482227e-02 8.64524916e-02
      2.53692150e-01 6.48249462e-02 6.34630769e-02 7.08625689e-02
      4.01015095e-02 3.21038887e-02 1.80249512e-01 4.07685041e-01
      4.07685041e-01 4.07685041e-01 2.24721402e-01 5.05589284e-02
      3.44647728e-02 3.71894501e-02 2.78617367e-02 3.19638513e-02
      2.48829797e-01 4.07685041e-01 7.66613632e-02 7.82931447e-02
      4.44853678e-02 3.77500579e-02 7.31207803e-02 2.71679219e-02
      3.00813355e-02 5.04801609e-02 1.00970186e-01 1.61380619e-01
      6.73425719e-02 5.87612316e-02 2.12034900e-02 5.70636913e-02
      3.12971100e-02 4.27890867e-02 4.55412641e-02 1.45782650e-01
      3.98245156e-01 3.98245156e-01 1.81684822e-01 2.70385891e-02
      7.45275989e-02 1.92655269e-02 2.96611246e-02 5.43750115e-02
      2.91244000e-01 3.37775350e-01 3.98245156e-01 3.82071465e-01
      8.63715708e-02 9.55447406e-02 4.67570759e-02 5.72767779e-02
      6.07973821e-02 8.25028494e-02 1.63862467e-01 7.84407780e-02
      8.04697275e-02 2.18998343e-02 8.48315507e-02 2.70422902e-02
      5.80116622e-02 3.36312689e-02 8.07696506e-02 8.83364230e-02
      6.61847070e-02 7.80877173e-02 3.46194655e-02 1.15939334e-01
      2.43796986e-02 5.73248789e-02 2.57038549e-02 5.38439788e-02</_>
    <_>
      1.60274044e-01 4.50443141e-02 7.58052468e-02 4.32745367e-02
      1.22574031e-01 1.70654774e-01 1.08789936e-01 8.80678967e-02
      1.73865691e-01 1.32723659e-01 5.84133081e-02 8.04149508e-02
      8.08909461e-02 1.72713295e-01 1.49302423e-01 1.10456899e-01
      9.82337072e-02 1.59196809e-01 3.12322229e-01 1.53315037e-01
      9.43685994e-02 6.03691898e-02 1.22628532e-01 1.37907758e-01
      1.70670077e-01 1.49490580e-01 3.12322229e-01 3.12322229e-01
      2.44442776e-01 8.28899220e-02 5.00253364e-02 1.58470750e-01
      1.49678349e-01 1.65698588e-01 2.79922217e-01 3.12322229e-01
      1.39869183e-01 8.44070390e-02 1.02766693e-01 1.15763061e-01
      2.37937853e-01 1.08629607e-01 1.26900256e-01 1.04101539e-01
      1.66970342e-01 2.16685832e-01 5.15353009e-02 9.76243317e-02
      8.12158287e-02 1.91443235e-01 7.49333948e-02 1.29137129e-01
      6.61227554e-02 2.29969040e-01 2.37937853e-01 2.37937853e-01
      1.53222874e-01 8.63600448e-02 2.35183865e-01 1.26156941e-01
      2.17807472e-01 2.37937853e-01 2.37937853e-01 2.17638135e-01
      1.17799148e-01 1.27450064e-01 9.94688496e-02 2.37937853e-01
      6.73419163e-02 2.37937853e-01 1.47771120e-01 1.96879521e-01
      1.70324281e-01 7.73979574e-02 1.07646272e-01 8.23834240e-02
      2.02260211e-01 6.67650029e-02 1.05915822e-01 1.56606495e-01
      1.73784122e-01 1.89917579e-01 1.27664715e-01 2.10969850e-01
      1.31567180e-01 2.45954663e-01 1.73970640e-01 1.92635745e-01
      2.45954663e-01 1.42812431e-01 1.32298827e-01 6.40554056e-02
      1.27866030e-01 9.62761939e-02 2.29313090e-01 5.26087321e-02
      1.77260831e-01 1.22633614e-01 1.40766099e-01 2.38040954e-01
      1.08553439e-01 2.37738177e-01 1.92074731e-01 2.45954663e-01
      1.77166879e-01 1.85831860e-01 1.56582370e-01 1.68128535e-01
      1.47977114e-01 1.08666077e-01 2.02700436e-01 8.35528448e-02
      2.35400602e-01 1.42295420e-01 1.61510766e-01 2.17501864e-01
      1.31389976e-01 1.85963288e-01 1.76007062e-01 1.90847576e-01
      1.48900002e-01 2.31221855e-01 1.20942347e-01 9.63974148e-02
      1.04529530e-01 1.88564643e-01 2.05534741e-01 9.50036123e-02
      2.16199577e-01 1.57173425e-01 2.35400602e-01 1.68105975e-01
      1.16721883e-01 1.62295297e-01 1.42173588e-01 1.66490242e-01
      1.09075427e-01 2.02514619e-01 1.52722597e-01 2.35400602e-01
      1.82354972e-01 1.18969940e-01 1.02096044e-01 1.33310094e-01
      1.13690391e-01 1.61133707e-01 1.82257548e-01 1.12527460e-01
      1.22347862e-01 1.44307658e-01 3.47898416e-02 6.39644265e-02
      1.45751402e-01 1.84446841e-01 1.57715470e-01 1.83396965e-01
      1.07158825e-01 1.98060244e-01 2.18068406e-01 4.84479852e-02
      8.18387717e-02 1.66870192e-01 1.12590291e-01 1.02571860e-01
      2.07566291e-01 2.02816412e-01 2.41055891e-01 2.41055891e-01
      5.83429374e-02 5.85633367e-02 1.60856873e-01 2.41055891e-01
      1.68069631e-01 2.06528038e-01 2.06045777e-01 2.41055891e-01
      2.41055891e-01 6.99920058e-02 1.25581026e-01 2.41055891e-01
      3.03758323e-01 8.92657489e-02 1.26159759e-02 5.85320778e-02
      1.04442634e-01 4.01589796e-02 2.95362715e-02 3.58566381e-02
      2.59244025e-01 2.16022238e-01 2.85029430e-02 6.42943988e-03
      5.88541850e-03 9.01146829e-02 1.58597738e-01 7.79172704e-02
      9.62967053e-02 2.51003027e-01 3.03758323e-01 1.05675347e-01
      1.42776584e-02 1.22782536e-01 3.03758323e-01 2.52169758e-01
      3.85442227e-02 5.11919893e-02 2.50282854e-01 2.14871451e-01
      1.89900156e-02 4.47303057e-03 1.73565280e-02 3.03758323e-01
      3.03758323e-01 1.09370291e-01 1.05429187e-01 2.37258419e-01
      1.07129723e-01 5.60074188e-02 4.73668464e-02 2.15347465e-02
      2.28153959e-01 3.69211257e-01 1.61639124e-01 1.62070960e-01
      1.98943853e-01 5.04672043e-02 2.74500940e-02 4.45054583e-02
      1.16212573e-02 8.40881169e-02 3.54856364e-02 7.32591823e-02
      5.16146310e-02 4.20720764e-02 8.74439850e-02 2.79383380e-02
      4.03917171e-02 3.96956429e-02 4.52552617e-01 4.52552617e-01
      2.09533066e-01 1.69071883e-01 1.78808093e-01 2.36562595e-01
      1.85405567e-01 5.96052855e-02 3.11174877e-02 1.65894017e-01
      8.50041807e-02 8.56738463e-02 8.81487280e-02 6.20364547e-02
      3.72885950e-02 2.80138422e-02 2.88857613e-02 8.87468085e-03
      7.32997805e-02 1.70067046e-02 4.05059084e-02 3.01565286e-02
      3.38186100e-02 6.58312812e-02 4.97241132e-02 4.88617308e-02
      3.39059383e-02 5.77119589e-02 3.31640802e-02 3.66099104e-02
      2.03195512e-02 4.71757054e-02 4.82662827e-01 4.82662827e-01
      3.35431285e-02 2.93780919e-02 8.21140930e-02 3.53489667e-02
      3.65803763e-02 3.94244157e-02 5.34677282e-02 4.82662827e-01
      4.82662827e-01 3.59799042e-02 4.37867902e-02 4.18331139e-02
      1.61780342e-02 4.44744602e-02 3.08392495e-02 9.07992348e-02
      4.38081995e-02 2.25608330e-02 2.13536881e-02 1.76090803e-02
      1.86567903e-02 1.20074274e-02 1.26553010e-02 1.43303089e-02
      1.90906953e-02 1.47622287e-01 3.70556600e-02 1.67477727e-02
      1.33408317e-02 3.89463343e-02 1.75725203e-02 1.74193885e-02
      1.79083385e-02 4.17185798e-02 4.79325682e-01 4.79325682e-01
      1.27098560e-02 9.07421764e-03 1.25746327e-02 3.65475635e-03
      1.35570997e-02 1.81974974e-02 5.64571247e-02 4.79325682e-01
      4.79325682e-01 1.20819919e-02 4.95688012e-03 1.90204028e-02
      5.75544359e-03 7.55018368e-03 2.41508614e-02 1.96586236e-01
      1.99099109e-01 2.43047997e-02 1.11954240e-02 1.52959656e-02
      3.04163210e-02 2.05877870e-02 1.25959804e-02 1.16842790e-02
      6.60496280e-02 1.74289495e-01 1.60456505e-02 1.25885215e-02
      2.49908753e-02 3.14312987e-02 5.10748662e-02 3.96106280e-02
      3.48359868e-02 1.18548036e-01 4.00818914e-01 2.76158571e-01
      1.17008705e-02 1.19830659e-02 6.28015995e-02 2.28493474e-02
      3.93941291e-02 3.44670825e-02 2.83397138e-01 4.00818914e-01
      1.09849438e-01 3.64220925e-02 7.72493333e-02 4.00818914e-01
      2.44046330e-01 2.02039734e-01 1.17294028e-01 3.43540162e-01
      3.52819152e-02 1.33730676e-02 1.23928413e-02 4.81374152e-02
      3.45562100e-01 2.61590868e-01 1.50162829e-02 1.37933819e-02
      2.30723228e-02 4.19400297e-02 2.50794739e-02 6.74413890e-03
      1.91403404e-02 3.45562100e-01 3.45562100e-01 3.19770463e-02
      2.90912203e-02 2.35987958e-02 1.13549428e-02 3.93391354e-03
      1.42151602e-02 3.95125747e-02 3.45562100e-01 3.45562100e-01
      3.01660448e-02 1.36268297e-02 1.19955139e-02 1.64418355e-01
      1.25566274e-01 1.23398257e-02 2.79386099e-02 3.45562100e-01
      3.45085382e-01 1.13970332e-01 1.13627113e-01 9.85186473e-02
      9.46078151e-02 1.48681983e-01 3.46080191e-03 8.29574559e-03
      3.48433703e-01 1.81911752e-01 2.16058362e-02 2.09602751e-02
      1.94333084e-02 2.95103520e-01 3.48433703e-01 7.35527696e-03
      4.87732422e-03 2.08895020e-02 8.14367458e-03 9.64762177e-03
      1.23014068e-02 2.38292497e-02 3.48433703e-01 3.48433703e-01
      1.25169298e-02 1.21859331e-02 2.51091808e-01 1.64824739e-01
      6.34540319e-02 8.21639746e-02 1.05911553e-01 3.48433703e-01
      3.48433703e-01 1.36851529e-02 1.57154410e-03 6.16646092e-03
      3.58613604e-03 7.04969559e-03 6.63124351e-03 3.52374427e-02
      3.48902017e-01 3.52951288e-01 3.37005057e-03 3.13937874e-03
      4.37171524e-03 3.10334354e-03 2.62355315e-03 3.29637039e-03
      1.66433156e-02 3.52951288e-01 3.52951288e-01 2.37952895e-03
      2.96941912e-03 2.85243709e-03 1.89449196e-03 5.04388986e-03
      4.10121959e-03 2.37195455e-02 3.52951288e-01 3.52951288e-01
      2.45082681e-03 3.79350968e-04 7.82158051e-04 2.95790401e-03
      2.86674662e-03 1.64292275e-03 2.87638307e-02 3.52951288e-01
      3.52951288e-01 2.98299128e-03 1.29122438e-03 3.25383595e-03
      3.51192662e-03 4.12822887e-03 5.65434387e-03 2.84009110e-02
      3.72123390e-01 3.72123390e-01 3.93860880e-03 2.30800430e-03
      3.26785515e-03 3.46516608e-04 3.30136181e-03 4.70952736e-03
      3.50415893e-02 3.72123390e-01 3.08175802e-01 6.25259569e-03
      1.00007502e-03 1.14537962e-03 4.45038859e-05 8.98118014e-04
      9.12143104e-03 8.73638839e-02 3.72123390e-01 3.72123390e-01
      4.13135020e-03 2.17426661e-03 3.95709975e-03 1.41780369e-03
      5.23668528e-03 9.56155360e-03 2.48805080e-02 3.72123390e-01
      2.38489628e-01 6.39632391e-03 1.92209869e-03 3.08363233e-03
      2.60850415e-03 5.99930296e-03 1.30475517e-02 5.90147637e-02
      3.88003349e-01 2.31504485e-01 1.51217291e-02 1.53062101e-02
      4.84050885e-02 9.45527852e-03 1.66942906e-02 2.11513825e-02
      1.76504835e-01 3.88003349e-01 1.60541043e-01 7.00048059e-02
      1.20806083e-01 3.88003349e-01 1.15061112e-01 7.36320987e-02
      4.10230570e-02 1.38530537e-01 3.88003349e-01 1.30440488e-01
      1.23363771e-02 1.16094695e-02 1.38314804e-02 6.00043731e-03
      7.57902535e-03 1.34682739e-02 1.01246260e-01 3.88003349e-01
      1.09799013e-01 5.43128923e-02 7.79227614e-02 1.24334298e-01
      1.23458719e-02 1.57163553e-02 1.34436311e-02 7.12958053e-02
      1.84779555e-01 1.11327618e-02 5.91388112e-03 2.89238822e-02
      2.95047373e-01 2.95047373e-01 8.66291225e-02 7.53775463e-02
      1.19920239e-01 2.95047373e-01 2.95047373e-01 1.09940805e-02
      1.55918514e-02 1.34604946e-01 1.55516699e-01 1.05890132e-01
      1.17285207e-01 1.84639469e-01 2.95047373e-01 2.46339682e-02
      1.89345870e-02 2.51477528e-02 2.08670750e-01 1.66454971e-01
      9.93584171e-02 1.22819431e-01 2.66753793e-01 2.95047373e-01
      2.95047373e-01 6.47161575e-03 3.94000532e-03 3.09171621e-02
      2.56564077e-02 3.29690762e-02 5.34393378e-02 2.20611557e-01
      3.59022707e-01 3.59022707e-01 1.94311403e-02 1.12074912e-02
      3.43153626e-02 5.30576035e-02 4.54974324e-02 5.93631230e-02
      1.14298508e-01 3.59022707e-01 3.59022707e-01 1.74700487e-02
      3.47996433e-03 5.98172983e-03 1.27146288e-03 4.66080382e-03
      8.91580991e-03 4.02547009e-02 3.59022707e-01 3.59022707e-01
      1.19771818e-02 5.14572905e-03 1.07232342e-02 2.40641856e-03
      1.14182085e-02 1.97572894e-02 5.72714992e-02 2.92996705e-01
      3.24653268e-01 9.54586174e-03 5.62338298e-03 1.55113572e-02
      1.82436465e-03 1.13834301e-02 2.53187232e-02 3.63763906e-02
      4.58921015e-01 4.58921015e-01 1.12003656e-02 6.07592240e-03
      1.43698091e-02 6.49412395e-03 8.08962248e-03 1.77108999e-02
      5.92867807e-02 4.58921015e-01 4.58921015e-01 1.54472971e-02
      9.50683188e-03 2.32295375e-02 1.43192513e-02 2.03017276e-02
      3.51973288e-02 5.01026176e-02 2.47374013e-01 2.43156344e-01
      1.65414214e-02 1.23789674e-02 3.11065484e-02 6.61878427e-03
      1.96839608e-02 3.95365059e-02 4.34023663e-02 9.04858932e-02
      6.34367317e-02 2.89217234e-02 9.87854972e-03 3.48866172e-02
      1.78299490e-02 2.63213832e-02 3.33730541e-02 3.69178876e-02
      4.88108873e-01 4.88108873e-01 2.96192970e-02 2.43722182e-02
      3.80993485e-02 4.06923704e-02 7.56340921e-02 9.42904577e-02
      7.25988597e-02 4.88108873e-01 4.09864515e-01 4.44923602e-02
      2.70163268e-02 4.30661626e-02 3.77501994e-02 7.85259604e-02
      7.64872953e-02 9.79195088e-02 8.94257575e-02 5.37219606e-02
      4.31668684e-02 1.78919770e-02 5.18437140e-02 5.39529435e-02
      6.93417341e-02 6.44228384e-02 7.10173249e-02 7.23687187e-02
      7.11381957e-02 3.87788899e-02 2.62226425e-02 6.14269823e-02
      3.45974490e-02 6.91762492e-02 4.48154360e-02 5.83945401e-02
      3.66475165e-01 2.55068749e-01 9.31592882e-02 7.61229619e-02
      7.63287619e-02 9.57542509e-02 1.15912139e-01 1.08396553e-01
      2.09383652e-01 3.66475165e-01 1.40291154e-01 1.37154549e-01
      1.74128443e-01 1.53452918e-01 8.92745629e-02 1.67132884e-01
      1.83251470e-01 2.36617938e-01 9.48183239e-02 1.36444494e-01
      9.54095051e-02 8.90343934e-02 9.64316800e-02 5.96518368e-02
      1.23654053e-01 1.12454318e-01 1.20163538e-01 1.30357221e-01
      1.45284832e-01 1.20670937e-01 9.89036709e-02 1.22603729e-01
      8.93239379e-02 1.52002051e-01 2.48695031e-01 2.75793642e-01
      3.26453120e-01 9.76316780e-02 8.93417075e-02 8.02794397e-02
      1.81484073e-01 1.63944691e-01 1.48405984e-01 2.44400352e-01
      3.26453120e-01 3.26453120e-01 3.26453120e-01 4.61687483e-02
      2.29658857e-02 7.19200000e-02 4.72633541e-02 9.88669246e-02
      1.50367901e-01 3.26453120e-01 1.19696178e-01 9.13432166e-02
      7.44343549e-02 9.22548994e-02 2.72477329e-01 1.27773583e-01
      1.07529268e-01 1.01842135e-01 1.14448443e-01 9.67272744e-02
      1.12036303e-01 7.76282549e-02 4.87664565e-02 1.09977148e-01
      7.12554678e-02 1.20079927e-01 1.33976683e-01 1.17139779e-01
      2.81195968e-01 2.81195968e-01 1.06146447e-01 3.95444855e-02
      1.09448902e-01 6.41051754e-02 1.66122720e-01 2.16846198e-01
      2.11862415e-01 2.48572037e-01 2.26337507e-01 7.29868114e-02
      3.13087814e-02 1.61294878e-01 7.48176873e-02 1.62950918e-01
      2.59623349e-01 1.27641961e-01 2.13531330e-01 1.61270961e-01
      1.37447804e-01 6.41548261e-02 1.27932847e-01 1.50372833e-01
      1.81339532e-01 1.65637404e-01 1.56118572e-01 1.78155139e-01
      1.31043419e-01 1.38974011e-01 7.49605596e-02 1.85314700e-01
      1.46368265e-01 1.38157621e-01 2.12245986e-01 1.31936401e-01
      1.70415357e-01 1.56337813e-01 1.37446657e-01 6.69558272e-02
      1.76762193e-01 6.28993735e-02 1.27083838e-01 2.31676489e-01
      1.53004840e-01 1.77437365e-01 1.31967574e-01 2.16520593e-01
      5.00528738e-02 1.43062755e-01 1.53675482e-01 1.17898189e-01
      1.92380831e-01 1.94869444e-01 1.33592620e-01 1.69913873e-01
      1.59252852e-01 1.24087043e-01 2.31676489e-01 9.45725143e-02
      8.67002830e-02 2.21923053e-01 1.68311909e-01 2.31676489e-01
      2.10896105e-01 1.53873742e-01 1.11363798e-01 1.59237802e-01
      1.47108495e-01 1.93316862e-01 2.31676489e-01 2.31676489e-01
      1.56226858e-01 1.65789038e-01 1.31724268e-01 1.48907062e-02
      1.17656656e-01 1.91888586e-01 1.28776118e-01 1.87017262e-01
      1.65873945e-01 1.59137443e-01 1.99286535e-01 9.48800519e-02
      4.74102572e-02 1.84617698e-01 1.00432143e-01 1.65295005e-01
      1.51853427e-01 1.40325293e-01 2.38928273e-01 2.30130151e-01
      1.79110259e-01 9.96484756e-02 1.35889232e-01 1.55980080e-01
      1.72311753e-01 2.38928273e-01 2.00331628e-01 1.64881438e-01
      1.60130903e-01 1.52971476e-01 2.19125181e-01 2.38928273e-01
      8.50543678e-02 1.19690455e-01 2.21660361e-01 1.84630528e-01
      9.99364927e-02 1.14703506e-01 6.99163973e-02 5.12206480e-02
      1.72408402e-01 6.01712279e-02 1.46671116e-01 1.35643750e-01
      1.41398698e-01 1.40193373e-01 1.66086510e-01 9.48018208e-02
      8.38593245e-02 2.34996200e-01 1.06347173e-01 1.77618653e-01
      2.48326212e-01 2.50760853e-01 1.48492381e-01 1.37835130e-01
      8.97815898e-02 9.15232599e-02 2.50760853e-01 9.51357931e-02
      1.36376888e-01 1.34493902e-01 1.92824095e-01 2.27683172e-01
      2.28014484e-01 8.81375819e-02 1.56208083e-01 2.50760853e-01
      2.08051935e-01 1.98591545e-01 1.99822500e-01 2.50760853e-01</_>
    <_>
      2.01155588e-01 1.40709028e-01 9.93351191e-02 2.37277765e-02
      2.12127477e-01 1.69183150e-01 1.26123488e-01 2.22890124e-01
      2.15980172e-01 1.66324198e-01 1.50230885e-01 1.15302615e-01
      2.10640300e-02 2.04985306e-01 1.37049645e-01 1.03678763e-01
      2.05406517e-01 1.66701511e-01 2.47037321e-01 1.40315115e-01
      9.20360461e-02 2.64166594e-02 2.40113825e-01 1.50469378e-01
      8.89321566e-02 1.34290352e-01 2.47037321e-01 2.47037321e-01
      1.27866775e-01 1.10630363e-01 6.13977090e-02 2.47037321e-01
      1.74536347e-01 1.05461068e-01 1.45954356e-01 2.47037321e-01
      1.65377736e-01 1.42867088e-01 1.10455953e-01 2.11822242e-02
      1.54013976e-01 1.21653214e-01 1.52600005e-01 1.43437698e-01
      1.89595163e-01 2.40060598e-01 1.91213325e-01 1.48498580e-01
      6.04427233e-02 1.36680707e-01 1.84653416e-01 2.14000672e-01
      2.40060598e-01 2.40060598e-01 1.85233384e-01 1.36982530e-01
      1.17679842e-01 4.92921956e-02 1.41097441e-01 1.41661271e-01
      1.41981304e-01 1.60711318e-01 2.30612829e-01 2.40060598e-01
      2.40060598e-01 1.78836599e-01 8.41286629e-02 8.99692923e-02
      8.76516476e-02 1.16945721e-01 1.87705696e-01 2.40060598e-01
      2.34523803e-01 1.38385415e-01 1.60822928e-01 5.82622848e-02
      1.35570988e-01 1.54801801e-01 1.41636640e-01 1.73106909e-01
      2.34523803e-01 2.34523803e-01 2.15149209e-01 1.97274059e-01
      7.36333132e-02 2.34523803e-01 6.32320046e-02 1.03861474e-01
      1.70205280e-01 2.07254484e-01 2.34523803e-01 2.11639121e-01
      1.64934129e-01 6.64381906e-02 9.75112021e-02 7.39954934e-02
      1.06360011e-01 8.35898295e-02 2.34523803e-01 2.20936909e-01
      2.12910965e-01 1.30409703e-01 3.95777486e-02 2.34523803e-01
      6.52749836e-02 1.45383716e-01 1.41197175e-01 1.63664982e-01
      2.26140827e-01 1.54060796e-01 1.64194494e-01 1.23338044e-01
      2.28124842e-01 1.12765707e-01 8.93796310e-02 1.74892232e-01
      1.72358736e-01 1.68622658e-01 1.25754535e-01 1.59911081e-01
      1.29438519e-01 2.36473396e-01 1.46408170e-01 8.68631750e-02
      1.31978437e-01 1.42694175e-01 1.62007183e-01 1.81421220e-01
      1.09979309e-01 1.00680038e-01 2.36473396e-01 1.30212724e-01
      1.50739387e-01 2.26313114e-01 1.04271360e-01 1.20366856e-01
      1.08115382e-01 1.28278360e-01 1.32261500e-01 2.36473396e-01
      2.29032725e-01 2.36473396e-01 2.36473396e-01 1.37389049e-01
      1.19076334e-01 6.20822124e-02 7.65892416e-02 4.57871407e-02
      2.31096193e-01 1.30049229e-01 1.24930628e-01 8.53455588e-02
      1.52477875e-01 1.77451178e-01 7.25887269e-02 6.08924590e-02
      1.16900645e-01 2.55519807e-01 1.58494204e-01 2.55519807e-01
      1.63978025e-01 2.17700139e-01 1.20981321e-01 6.90242574e-02
      9.50094983e-02 5.94051667e-02 2.55519807e-01 1.46170542e-01
      1.92955449e-01 1.72612116e-01 2.00605929e-01 2.06133828e-01
      1.05156124e-01 5.76197952e-02 1.44772619e-01 2.55519807e-01
      1.78778172e-01 2.55519807e-01 1.98326081e-01 2.55519807e-01
      2.96584368e-01 5.28945215e-02 5.63360117e-02 2.61998996e-02
      4.91285399e-02 1.92830134e-02 1.43871624e-02 2.15266421e-02
      1.86021075e-01 2.33278230e-01 2.01760288e-02 1.34622194e-02
      8.23259726e-03 5.32631315e-02 8.26247707e-02 6.23345524e-02
      8.03895593e-02 2.44600356e-01 2.96584368e-01 9.03568268e-02
      1.39366880e-01 1.36770695e-01 2.96584368e-01 1.87037930e-01
      3.59760597e-02 3.09981462e-02 2.80771494e-01 2.96584368e-01
      3.28059979e-02 2.80541442e-02 5.84781505e-02 2.96584368e-01
      2.96584368e-01 1.38289273e-01 1.22044943e-01 2.96584368e-01
      1.14128895e-01 4.17813174e-02 4.34861891e-02 2.66987663e-02
      1.48436412e-01 2.08731353e-01 1.35445207e-01 1.72709838e-01
      2.44028538e-01 9.67803672e-02 9.57467854e-02 6.48006350e-02
      2.95993593e-02 4.43526171e-02 2.36562528e-02 1.75553728e-02
      3.39843296e-02 8.80491361e-02 1.62908643e-01 6.84347674e-02
      7.10502118e-02 1.33446872e-01 4.11700487e-01 4.11700487e-01
      2.67214656e-01 2.23696142e-01 3.07747096e-01 1.89730749e-01
      2.81459600e-01 9.25729871e-02 7.25208893e-02 1.17092982e-01
      7.80708045e-02 5.21119982e-02 3.67948711e-02 8.76790807e-02
      7.69645274e-02 6.40943572e-02 3.55337672e-02 2.56210342e-02
      4.03268151e-02 1.48381079e-02 1.83677655e-02 2.03525797e-02
      6.71648234e-02 8.31877440e-02 6.22010082e-02 2.84157041e-02
      1.52973747e-02 4.05515172e-02 2.48219669e-02 4.07075584e-02
      4.26455662e-02 6.98045343e-02 3.88793170e-01 4.98180836e-01
      4.92747650e-02 4.66246270e-02 6.89415708e-02 5.26199378e-02
      3.67271788e-02 4.35750969e-02 7.44706839e-02 4.98180836e-01
      4.98180836e-01 5.99280745e-02 3.94714922e-02 6.98210374e-02
      3.99313942e-02 3.78578566e-02 6.36543036e-02 1.40681520e-01
      6.61197379e-02 3.19765992e-02 7.78291421e-03 7.25366129e-03
      1.38468966e-02 7.15667568e-03 2.10743733e-02 2.10406724e-02
      1.98022258e-02 2.46713221e-01 1.05024964e-01 1.04418732e-02
      1.19150458e-02 2.13604793e-02 1.65313501e-02 3.28312963e-02
      2.53184978e-02 4.28951792e-02 4.70998436e-01 4.70998436e-01
      1.29515892e-02 1.29966456e-02 1.41058285e-02 3.08083021e-03
      1.58642847e-02 2.52954420e-02 5.83396442e-02 4.70998436e-01
      4.70998436e-01 2.08150707e-02 1.30206011e-02 7.69395987e-03
      7.34465104e-03 1.85214393e-02 2.15010568e-02 1.34571567e-01
      3.16820592e-01 9.09810737e-02 6.34490885e-03 4.58063791e-03
      2.15783902e-02 1.76773425e-02 1.83737595e-02 3.03923376e-02
      7.27967918e-02 2.22917318e-01 4.27258387e-02 7.28320470e-03
      1.29101686e-02 5.79594374e-02 5.95236570e-02 4.16017324e-02
      7.40775242e-02 1.16796285e-01 3.62802565e-01 3.62802565e-01
      2.89108586e-02 3.46181579e-02 7.60103017e-02 4.50156704e-02
      2.45847125e-02 5.74233979e-02 1.94884807e-01 3.62802565e-01
      2.17951775e-01 5.12204766e-02 1.76574662e-01 3.62802565e-01
      2.15524703e-01 1.02552801e-01 1.61908150e-01 2.41065964e-01
      7.96942487e-02 1.75897013e-02 3.16290371e-02 9.20265391e-02
      3.75443786e-01 1.94471732e-01 2.03276109e-02 7.57238828e-03
      4.66960557e-02 6.24173991e-02 2.13494506e-02 1.10999001e-02
      7.49361813e-02 3.75443786e-01 3.36752802e-01 4.06449586e-02
      2.43061874e-02 5.56292869e-02 1.26076471e-02 1.17917331e-02
      1.37827080e-03 5.37344553e-02 3.75443786e-01 2.80457526e-01
      2.25366466e-02 7.50537356e-03 1.37464711e-02 1.20490618e-01
      1.46337539e-01 4.46974160e-03 5.93182147e-02 3.75443786e-01
      3.29236716e-01 4.56870832e-02 8.98679420e-02 7.97362477e-02
      5.64700887e-02 1.20751470e-01 1.41786830e-02 4.15613092e-02
      3.58259887e-01 1.86748579e-01 2.50047818e-02 1.44991307e-02
      1.65664852e-02 1.83177456e-01 3.58259887e-01 1.88261885e-02
      9.48223844e-03 2.17836201e-02 1.28578981e-02 1.11629684e-02
      6.32709311e-03 1.77497342e-02 3.08886766e-01 3.58259887e-01
      1.82899758e-02 2.88051050e-02 3.43071222e-01 1.84690252e-01
      2.95165293e-02 7.16871768e-02 7.61099160e-02 3.58259887e-01
      3.58259887e-01 3.98589112e-02 1.27643971e-02 1.27613917e-02
      8.85996781e-03 6.30796561e-03 7.46369828e-03 3.99209112e-02
      2.18309596e-01 3.66952568e-01 1.26256151e-02 3.19941202e-03
      5.86278317e-03 6.57283235e-03 8.01368244e-03 5.37243765e-03
      1.57265291e-02 3.66952568e-01 3.66952568e-01 1.36671541e-02
      5.65558299e-03 5.78107033e-03 4.39365814e-03 5.61124319e-03
      5.37847448e-03 2.59990133e-02 3.66952568e-01 3.66952568e-01
      2.38348618e-02 3.96697503e-03 1.91196124e-03 2.77341716e-03
      7.97550566e-03 3.82660609e-03 4.28561941e-02 3.66952568e-01
      3.66952568e-01 1.78972520e-02 7.53661618e-03 3.11650359e-03
      4.33964329e-03 7.23468326e-03 3.80685041e-03 3.89548279e-02
      3.51967365e-01 3.51967365e-01 5.43096289e-03 4.45124833e-03
      2.83336197e-03 6.62283448e-04 2.05688877e-03 6.60299091e-03
      2.76750755e-02 3.51967365e-01 3.51967365e-01 7.85158295e-03
      2.26949062e-03 8.41073866e-04 7.64494005e-04 2.39836145e-03
      7.15961074e-03 5.31971566e-02 3.51967365e-01 3.51967365e-01
      1.18694529e-02 7.62467179e-03 3.89469811e-03 1.77348952e-03
      1.44952862e-03 2.66766944e-03 2.10731141e-02 3.51967365e-01
      3.51967365e-01 9.28328931e-03 4.41842526e-03 4.23689652e-03
